3407 10
1117 0.00653308 0.465196 0.860786 0.925881 0.857114 0.557961 -0.0444699 0.1441 -0.134239 1.23016
1517 -0.255174 0.973627 0.582356 1.41048 1.28112 0.869961 -0.347141 0.381844 -0.500099 1.54507
0 -0.243264 0.328532 1.00667 0.692392 1.11637 0.723212 -0.56338 0.113144 -0.638881 1.4885
2651 -0.485293 1.38722 0.977796 1.36739 1.5013 0.979963 -0.727762 0.517697 -0.607239 1.78833
2802 -0.393794 1.23905 0.990944 1.22382 1.69711 1.12138 -0.64904 0.669 -0.743609 1.69337
784 -0.218924 0.510404 0.408316 1.10017 1.1071 0.583221 -0.497404 0.350191 -0.403816 1.30764
1763 -0.0871184 0.824271 0.736224 1.05964 1.32692 0.981903 -0.45949 0.247058 -0.410546 1.76192
896 -0.324824 0.483049 0.681894 0.673994 1.12404 0.607588 -0.334561 0.0423447 0.0923402 1.31087
1714 0.137352 0.797217 0.748936 1.17794 1.43507 0.833872 -0.745228 0.477265 -0.11369 1.82934
181 0.224227 0.461856 0.328011 0.854599 1.14108 0.663762 -0.360347 0.358991 -0.186816 1.39912
1723 -0.10246 0.868452 0.59128 1.10464 1.32469 0.662971 -0.577311 0.348138 -0.266847 1.46666
1030 0.508957 0.192256 0.489096 0.652831 1.04693 0.800315 -0.498932 0.578033 0.214177 1.44256
1513 0.0109264 1.03195 0.833483 1.15976 1.42047 0.807143 -0.541224 0.0865932 -0.0580031 1.49776
958 0.268363 0.318885 0.576788 0.7031 0.990178 0.534152 -0.357252 0.294713 0.103808 1.35671
178 -0.0024439 0.576513 0.805667 0.880466 0.828502 0.376994 -0.568927 0.0704892 0.145495 1.42778
1757 -0.00569974 0.987081 1.07595 1.55842 1.35377 0.727769 -0.561923 0.598493 -0.249974 1.85876
67 -0.243218 0.711144 0.504072 0.441113 0.858468 0.517741 -0.543368 0.160895 -0.234797 1.59421
1749 -0.339514 1.13912 0.828764 1.21651 1.41034 0.935557 -0.339914 0.435939 -0.480986 1.47747
1522 -0.668696 1.38939 1.11986 1.16528 1.52724 0.864746 -0.4395 0.656913 -0.83229 1.55718
1025 0.0214514 0.210912 0.205678 0.401473 1.14404 1.29211 -0.781245 0.715766 0.0836226 1.36255
1519 -0.119686 0.80614 0.553759 1.04496 1.19323 0.859745 -0.563903 0.342585 -0.230797 1.56152
596 -0.205655 0.495024 0.672932 0.744653 1.05481 0.408545 -0.474397 0.520852 -0.0375367 1.59588
2590 -0.427924 1.54808 1.0616 1.28146 1.47756 0.947727 -0.587911 0.516947 -0.85194 1.59062
1165 0.113628 0.237199 0.704254 1.06478 1.14359 0.745196 -0.454731 0.333349 0.164321 1.24764
1518 0.00327424 0.798389 0.598244 1.08405 1.30302 0.767036 -0.651701 0.361517 -0.269977 1.7187
2799 -0.567297 1.18718 1.09704 1.31144 1.56131 0.922192 -0.486924 0.322009 -0.722198 1.70755
478 -0.572451 0.972653 0.84793 1.25716 1.29714 0.85523 -0.28689 0.368548 -0.376737 1.51608
2222 -0.660663 1.49 1.21658 1.32031 1.4776 0.853559 -0.413271 0.503663 -0.461648 1.77289
3163 -0.657034 1.05281 1.19243 1.26529 1.75605 1.07653 -0.43548 0.675124 -0.814356 1.69369
765 0.416438 0.0099985 0.643779 0.366093 0.733318 0.964688 -0.454233 0.220626 -0.101114 1.79807
1512 0.158921 0.602716 0.804321 1.15647 1.08288 0.763217 -0.484539 0.318178 -0.0901118 1.74302
2689 -0.599627 1.43815 0.782664 1.358 1.39235 0.848475 -0.426685 0.599867 -0.744139 1.9171
691 0.473538 0.426797 0.865684 0.777279 0.790195 0.350726 -0.130702 0.361315 0.0996695 1.44459
1728 -0.256665 1.13955 0.862674 1.45278 1.39693 0.737827 -0.51558 0.553933 -0.504752 1.48491
2096 -0.443384 1.57541 1.22358 1.42668 1.56728 1.17075 -0.558416 0.514334 -0.809002 1.64299
96 0.271665 0.191807 0.518172 0.705613 1.11079 0.508201 -0.245742 0.142418 0.26509 1.56383
1764 -0.405141 1.39704 1.07191 1.60025 1.71485 0.793177 -0.590971 0.172349 -0.37529 1.54169
1966 -0.614836 1.45994 1.29428 1.29172 1.38671 1.2692 -0.449309 0.37065 -0.418221 1.51242
2034 -0.360344 1.39179 0.782825 1.32704 1.66678 1.04398 -0.483841 0.376542 -0.873486 1.62632
2714 -0.616675 1.4669 1.0218 1.14028 1.60779 1.05709 -0.473778 0.494982 -0.499038 1.61823
1153 -0.325683 1.15767 0.83098 1.25027 1.07204 0.801116 -0.367851 0.417557 -0.285817 1.42493
2289 -0.41907 1.67178 1.12272 1.30108 1.68407 0.918917 -0.539091 0.33346 -0.672616 1.73253
13 -0.347924 0.933578 0.574019 1.20378 1.44062 0.508352 -0.479668 0.378707 -0.0770332 1.57853
1931 -0.372406 1.55775 1.0943 1.4953 1.61901 0.838998 -0.389547 0.47677 -0.437193 1.53633
1481 -0.502 1.49038 0.987079 1.21387 1.38148 0.884554 -0.513979 0.35048 -0.552534 1.54779
3076 -0.934819 1.46735 1.06772 1.17943 1.44219 1.06172 -0.477314 0.308381 -0.585836 1.79373
378 0.326931 0.37431 0.555455 0.808124 0.835531 0.603491 -0.472553 0.313361 -0.125223 1.48547
1510 -0.212001 1.02858 0.641041 1.10201 1.28607 0.709738 -0.502844 0.328685 -0.435845 1.45541
1918 -0.615389 1.38686 1.21274 1.48587 1.47355 0.815396 -0.49157 0.464282 -0.508467 1.66643
2923 -0.595457 1.41252 0.866223 1.38088 1.5862 1.06733 -0.32779 0.497305 -0.516364 1.79065
3029 -0.514773 1.51184 1.13519 1.25258 1.50782 0.948198 -0.562414 0.389711 -0.633179 1.64594
2788 -0.334181 1.30113 0.96666 1.4393 1.49154 0.960606 -0.425417 0.481909 -0.709805 1.7775
2358 -0.565699 1.35503 1.019 1.46375 1.69532 0.805072 -0.469376 0.558933 -0.737214 1.73759
1703 -0.461783 1.26316 1.19857 1.16952 1.77204 0.937666 -0.357766 0.315263 -0.640761 1.66325
642 0.266591 0.170094 0.442404 0.924441 0.986503 0.61104 -0.221683 0.183871 0.0493404 1.68505
1719 -0.109557 0.996203 0.866568 1.07558 1.28175 0.799591 -0.629671 0.195937 -0.24931 1.77749
2363 -0.684976 1.49724 0.814568 1.34904 1.52752 0.921429 -0.419292 0.458681 -0.509797 1.86531
506 0.231375 0.395276 0.936237 0.682449 1.09403 0.543316 -0.519038 0.528609 -0.0545387 1.23014
1435 -0.0643273 0.603264 0.871234 0.890517 1.13118 0.562336 -0.48521 0.53935 -0.229321 1.4614
2320 -0.546234 1.58602 1.02519 1.34515 1.57889 0.792992 -0.293886 0.504353 -0.397822 1.78769
1473 0.0169647 0.358537 0.6296 0.952351 1.65213 1.04482 -0.702117 0.642741 -0.152564 0.732239
1765 -0.136299 1.13034 0.753007 1.16187 1.55608 0.89592 -0.695225 0.365917 -0.303499 1.38401
1542 -0.452102 1.43606 0.996608 1.32853 1.68027 0.879154 -0.462512 0.436439 -0.61226 1.73666
2563 -0.544749 1.51054 1.30938 1.24147 1.38826 0.358145 -0.331011 0.497346 -0.555023 1.91991
878 -0.190403 0.659018 0.819707 0.727785 0.889319 0.468624 -0.273984 0.438433 0.116229 1.25114
1202 0.218554 0.507774 1.07814 0.572984 0.895444 0.753407 0.071537 0.172018 0.30119 1.28964
1762 -0.0337581 0.846722 0.630782 1.32017 1.64556 0.88627 -0.6508 0.278985 -0.341554 1.78065
1952 -0.669509 1.46017 1.01918 1.43466 1.53004 0.757281 -0.453691 0.518397 -0.745893 1.6936
1347 0.100636 0.430464 0.428575 0.674316 1.17539 0.527716 -0.628972 0.557142 0.0862572 1.4023
1741 0.0992851 0.958434 0.882004 1.23045 1.4349 0.7095 -0.665316 0.392299 -0.345546 1.64798
3346 -0.625657 1.40485 0.998692 1.15637 1.46482 0.857969 -0.461945 0.720913 -0.666532 1.80926
3549 -0.737574 1.42728 0.979082 1.43501 1.56554 0.848334 -0.470243 0.591604 -0.52588 1.80542
2754 -0.522713 1.41077 0.963921 1.37439 1.41391 1.10092 -0.385097 0.600994 -0.532625 1.7461
1914 -0.439946 1.42011 1.07509 1.2712 1.66793 1.07291 -0.537533 0.586931 -0.535158 1.61942
230 -0.592076 1.30178 0.950438 1.33749 1.39779 0.838192 -0.598764 0.499342 -0.431531 1.52815
1716 -0.743761 1.51889 1.11557 1.48045 1.57207 1.10033 -0.535717 0.593022 -0.463402 1.77384
876 0.350059 0.226274 0.414373 0.794966 0.984767 0.666926 -0.402632 0.424574 -0.0642501 1.62868
1713 -0.0195343 0.840411 0.600873 1.29068 1.45999 0.849458 -0.755219 0.387149 -0.204892 1.73695
21 0.340978 0.334282 0.86188 1.17319 0.734353 0.638453 -0.598105 0.322621 -0.189671 1.2376
1760 -0.126044 0.862335 0.808145 1.46217 1.14322 0.854967 -0.767942 0.684465 -0.299571 1.90586
2635 -0.643524 1.57635 1.19492 1.2105 1.42712 0.905259 -0.397419 0.738078 -0.272178 1.74507
544 0.0442223 0.69304 0.701833 0.812631 1.31372 0.2212 -0.597187 0.126901 -0.244902 1.12592
763 0.185897 0.530832 0.486021 0.750236 1.23302 0.620221 -0.176103 0.244344 -0.479005 1.67978
1715 0.0223611 0.672018 0.737854 1.08333 1.16243 0.764477 -0.328414 0.3324 -0.310451 1.54106
2087 -0.606379 1.4582 1.18164 1.63158 1.47621 0.83685 -0.441833 0.442884 -0.570985 1.8705
205 -0.00852632 0.51038 0.487898 0.828371 1.00325 0.348004 -0.548536 0.349929 0.290356 1.53381
1629 -0.40399 1.32705 0.893603 1.34398 1.50273 1.11771 -0.525526 0.278238 -0.585532 1.6167
3123 -0.572818 1.40658 1.10744 1.50374 1.46241 0.883083 -0.278919 0.563313 -0.23766 1.82123
1416 -0.0156386 0.450096 0.837772 0.795389 0.958511 0.486526 -0.216042 0.0968555 -0.220723 1.44836
2688 -0.649829 1.41818 1.3901 1.3345 1.43651 0.695394 -0.466666 0.465727 -0.579859 1.77804
1614 -0.591063 1.4521 1.0443 1.47609 1.35551 0.916676 -0.438906 0.629306 -0.450656 1.75707
2056 -0.547358 1.26962 1.02045 1.50859 1.47735 1.0755 -0.614353 0.516479 -0.428922 1.78751
2167 -0.489616 1.57852 1.12765 1.04954 1.55912 0.93915 -0.442669 0.589715 -0.662603 1.79301
281 0.0927769 0.557933 0.649119 0.785466 0.841594 0.679145 -0.5582 0.275677 -0.0199869 1.30892
2982 -0.633735 1.40004 0.842961 0.968935 1.82518 0.901509 -0.189863 0.558291 -0.726589 1.6808
1950 -0.601896 1.38246 1.08777 1.70312 1.40519 0.702619 -0.349854 0.47996 -0.464138 1.82266
1560 -0.720684 1.23466 1.09228 1.07609 1.44866 0.877006 -0.231053 0.841439 -0.444992 1.86635
839 -0.473521 0.532027 0.773227 1.05416 1.45601 0.593334 -0.50438 0.0605322 -0.153375 1.6231
1193 -0.291584 0.550115 0.709221 0.84054 1.08413 0.719864 -0.352807 0.366432 -0.00257446 1.26406
1514 0.0321025 0.67308 0.67934 1.34553 1.27754 1.06309 -0.437317 0.381557 -0.268553 1.89785
1680 -0.507596 1.52134 1.27647 1.24983 1.21295 0.780536 -0.278838 0.64635 -0.687833 1.86414
2395 -0.614854 1.53067 0.820612 1.39 1.17387 0.923847 -0.699167 0.554313 -0.550646 1.9782
1577 -0.534043 1.45994 0.791222 1.26299 1.53335 0.91505 -0.612263 0.621792 -0.66949 1.73859
1571 -0.490194 1.31986 1.19735 1.42465 1.52053 1.04297 -0.353486 0.647087 -0.670497 1.55797
3413 -0.693454 1.36282 1.20523 1.26285 1.5372 0.806115 -0.362474 0.542781 -0.54523 1.78294
818 -0.155583 0.498374 0.675297 0.689883 0.87189 0.757263 -0.365233 0.295713 -0.376075 1.43087
1761 -0.161394 1.10453 0.893039 1.46158 1.32088 0.663078 -0.719166 0.410132 -0.298682 1.76706
140 0.189668 0.267493 0.249389 0.327837 1.25358 1.03379 -0.462304 0.667169 -0.103467 1.64789
2326 -0.576923 1.50719 0.989019 1.3414 1.40792 0.889013 -0.471042 0.656193 -0.600053 1.77938
389 -0.184234 0.483101 0.71292 0.825958 1.33263 0.492571 -0.347997 0.143248 0.11621 1.1362
3352 -0.791707 1.58699 1.04845 1.25373 1.49364 0.866272 -0.512328 0.454639 -0.471164 1.68909
786 -0.177827 0.371624 0.371675 0.74373 1.01561 0.956559 -0.509081 0.159378 0.0661279 1.37342
1756 -0.275217 1.15327 0.886877 1.42114 1.53749 0.962686 -0.480897 0.385207 -0.43914 1.74904
779 0.388355 0.106461 0.678577 0.815445 1.11004 0.87903 -0.380451 0.0786463 -0.0295687 1.45729
1521 0.0644214 0.597722 0.671488 1.11665 1.16304 0.734142 -0.479668 0.249931 -0.26952 1.72898
3013 -0.567305 1.4745 0.983613 1.00106 1.61777 1.2318 -0.541601 0.443614 -0.643183 1.73369
2214 -0.668315 1.41506 1.03754 1.3921 1.67873 0.822418 -0.67847 0.72685 -0.405977 1.5694
431 -0.351852 1.31273 1.09125 1.22948 1.48115 0.892378 -0.502174 0.440897 -0.433093 1.51221
2307 -0.423686 1.60743 1.28886 1.33915 1.55781 1.12878 -0.724457 0.392024 -0.443339 1.70605
1089 -0.311056 0.340131 0.537252 1.02015 1.0455 0.519124 -0.68659 0.467735 -0.181003 1.3077
520 -0.195335 0.539294 0.648899 0.99551 0.608037 0.747685 -0.134739 0.175815 -0.318887 1.54257
1725 -0.371824 1.22863 0.968663 1.34177 1.36163 0.734468 -0.567206 0.501054 -0.466701 1.48737
2365 -0.634507 1.27816 0.971077 1.35919 1.46425 0.971111 -0.345569 0.656579 -0.616109 1.80083
3551 -0.634269 1.40005 0.92016 1.48955 1.38914 1.13906 -0.52097 0.472168 -0.541778 1.70526
2731 -0.806752 1.30792 1.16235 1.35744 1.44451 0.914967 -0.381914 0.346944 -0.455773 1.80805
1162 -0.176502 0.926489 0.622539 1.11065 1.1739 0.668167 -0.237704 0.388418 -0.172156 1.33936
2165 -0.396121 1.51683 1.08798 1.49227 1.57648 0.876618 -0.410811 0.285279 -0.686502 1.77635
2712 -0.503319 1.56327 1.12673 1.32824 1.35945 1.09199 -0.0517175 0.499141 -0.365142 1.72584
725 -0.191697 0.912587 0.767171 1.1964 1.27529 0.598 -0.378673 0.502492 -0.357644 1.6803
2020 -0.77753 1.70817 1.02875 1.48949 1.59787 0.914742 -0.434199 0.436508 -0.453799 1.79496
1195 0.530453 0.0588351 0.772584 0.863926 0.874706 0.974289 -0.0414483 0.187886 0.0224943 1.42946
2465 -0.634204 1.63999 1.04567 1.17674 1.41256 0.879103 -0.411702 0.441294 -0.622457 1.84887
269 -0.194541 0.644894 0.838816 0.959465 0.956068 0.673422 -0.419843 0.459974 -0.312003 1.5111
1884 -0.650605 1.58425 1.0781 1.20877 1.33861 0.911379 -0.236587 0.522556 -0.649832 2.11909
944 -0.0421175 0.63851 0.889406 0.836684 1.06639 0.779085 -0.0589796 0.151315 0.0448908 1.3593
647 0.115115 0.362629 0.60126 0.745061 1.05776 0.924945 -0.221308 0.284989 0.0836552 1.61501
1525 0.0699077 0.664797 0.562457 1.08708 1.25863 0.983868 -0.287998 0.0982561 -0.123237 1.74826
266 0.361182 0.177044 0.627914 0.60483 0.815446 0.393614 -0.440438 0.0394971 -0.207925 1.85309
1727 -0.0304094 0.749008 0.580401 1.19355 1.20593 0.835741 -0.545273 0.573516 -0.286037 1.82423
1771 -0.596125 1.2289 0.744314 1.21786 1.6283 1.01042 -0.582908 0.304984 -0.507956 1.89343
1267 0.0585743 0.0720586 0.729636 0.795249 0.802149 0.486428 -0.249526 0.210441 -0.26733 1.54546
1742 -0.31497 1.24108 0.8781 1.30892 1.48904 0.93859 -0.59945 0.402565 -0.429038 1.51558
2463 -0.59516 1.46745 1.22675 1.45979 1.52445 0.915852 -0.454034 0.583051 -0.495191 1.71032
1472 0.180193 -0.0115271 0.232627 0.863905 0.854799 0.227557 -0.507123 0.677109 -0.218983 1.79859
3151 -0.673531 1.5505 1.10132 1.4914 1.40765 0.841385 -0.498671 0.233162 -0.550845 1.7585
2061 -0.621129 1.26608 0.902455 1.09665 1.54987 1.05838 -0.338669 0.611927 -0.698282 1.80289
1156 0.0713004 0.315692 0.747427 0.802275 1.12662 0.653692 -0.341824 0.0860239 0.296273 1.35684
1753 -0.0716352 1.00697 0.845141 1.32007 1.40755 0.845615 -0.535233 0.342754 -0.387716 1.80287
967 0.0890477 0.356119 0.276637 0.611036 0.968115 0.523768 -0.378421 0.403922 -0.557075 1.67042
1072 0.159015 0.378026 0.52677 0.955397 0.876695 0.614373 -0.356386 0.235191 -0.220738 1.55495
1758 -0.299843 1.04865 0.896052 1.08515 1.44362 0.890475 -0.357119 0.41253 -0.218431 1.70118
80 -0.0262918 0.754787 1.13716 0.845697 1.18794 0.630136 -0.384822 0.37664 -0.193038 1.44055
1743 -0.130069 0.955161 0.648254 1.14607 1.30856 0.88019 -0.478151 0.0568562 -0.268317 1.74927
402 -0.453669 1.35534 0.873191 1.20421 1.53377 0.804373 -0.438496 0.36391 -0.442269 1.43995
2275 -0.340828 1.5736 0.992739 1.34547 1.47092 1.01141 -0.268332 0.312976 -0.546537 1.73562
385 0.126433 0.225278 0.691197 0.918493 0.737587 0.699932 -0.177712 0.57099 0.163327 1.42504
1724 0.0984807 0.703137 0.724687 1.38808 1.35441 0.842556 -0.483014 0.581281 -0.0592845 1.53313
3505 -0.33455 1.52425 1.14041 1.28468 1.40765 0.914494 -0.26157 0.399507 -0.563969 1.75247
2072 -0.778846 1.60714 1.10587 1.39403 1.18729 0.578747 -0.6156 0.6416 -0.545872 1.8283
3576 -0.614995 1.61611 0.900166 1.4892 1.63819 0.931842 -0.430401 0.276701 -0.612648 1.44713
2693 -0.420881 1.54185 1.13566 1.52742 1.43881 0.816648 -0.441868 0.412271 -0.572375 1.62401
3092 -0.545789 1.44583 0.868322 1.24364 1.58921 1.02239 -0.301087 0.734184 -0.577654 1.8142
1 0.617288 0.185728 0.39654 0.73432 0.927044 0.954447 -0.486137 0.558243 -0.284559 1.41926
1215 0.509802 0.367504 0.473514 0.856731 0.642897 0.745506 -0.232998 0.63607 0.217686 1.65973
3130 -0.553542 1.59869 0.724239 1.09049 1.63802 0.962635 -0.282629 0.670281 -0.411995 1.65645
1094 0.240194 0.297022 0.464359 1.02008 0.768007 0.729378 -0.431033 0.443855 0.137604 1.52918
3447 -0.549489 1.42918 1.21034 1.17373 1.61853 0.879712 -0.194275 0.568681 -0.541604 1.67768
2772 -0.655296 1.47053 0.95917 1.34018 1.27535 0.8171 -0.627468 0.341513 -0.539058 1.8526
3 -0.560957 1.19687 0.66072 1.25169 1.37071 0.770682 -0.665994 0.430115 -0.693808 1.6229
1570 -0.487625 1.37717 0.967857 1.3356 1.39968 1.12653 -0.554594 0.581972 -0.612034 1.72551
3032 -0.731764 1.39122 1.05827 1.30401 1.48829 0.972938 -0.635674 0.517938 -0.553879 1.8419
668 0.0296976 0.603042 0.869508 0.925909 0.98087 0.60735 -0.0559914 0.115822 -0.193686 1.41784
2565 -0.883854 1.40474 1.02159 1.24571 1.3122 0.970492 -0.47656 0.47045 -0.432119 1.8782
898 -0.577309 1.26218 1.13881 1.14298 1.34642 0.700095 -0.484538 0.307898 -0.927186 1.49256
69 0.427422 0.155023 0.507402 0.645046 0.85791 0.886349 -0.0399529 0.34239 0.036748 1.63651
3072 -0.542296 1.59923 1.0129 1.30254 1.37429 0.896848 -0.496594 0.489691 -0.71102 1.77605
2250 -0.34056 1.57759 1.15008 1.44213 1.29004 0.909574 -0.157462 0.455214 -0.516358 1.78465
3559 -0.572408 1.47363 1.06965 1.51223 1.47722 1.10298 -0.64801 0.299894 -0.434849 1.71123
872 -0.0272732 0.475584 0.665865 0.812834 0.586867 0.514222 -0.114478 0.315798 -0.302514 1.79533
1706 -0.577501 1.3542 1.10871 1.55652 1.42181 1.1146 -0.354997 0.285203 -0.673343 1.7597
1660 -0.864593 1.26044 0.820538 1.43336 1.45974 0.877437 -0.431514 0.688374 -0.551643 1.91916
2708 -0.529989 1.36718 1.05789 1.40011 1.51185 0.826735 -0.4069 0.635263 -0.554662 1.73898
477 0.0309532 0.702884 0.792653 0.978921 1.33065 0.634976 -0.31288 -0.0422539 -0.251893 1.01503
416 0.0312574 0.669353 0.644978 0.745952 0.760165 0.411027 -0.296063 0.169012 -0.26446 1.62644
1516 -0.384731 1.00765 0.5955 1.31731 1.2741 0.755376 -0.383479 0.331457 -0.534353 1.63225
396 -0.387123 1.17378 0.93831 1.15368 1.27918 0.773232 -0.266633 0.553231 -0.287283 1.63477
1991 -0.501344 1.58299 1.32981 1.35238 1.43388 0.916784 -0.626105 0.4506 -0.617108 1.64247
2152 -0.437789 1.23139 1.19631 1.35645 1.4104 0.886674 -0.24387 0.508081 -0.862592 1.7753
3575 -0.871261 1.52015 0.955551 1.42601 1.50904 0.92605 -0.47742 0.605231 -0.737746 1.71429
593 0.362043 0.556148 0.91149 0.809513 0.847043 0.455775 -0.33398 0.183333 -0.176577 1.42062
1425 0.0629017 0.428416 0.72812 0.842089 0.916835 0.543778 -0.62127 0.237314 -0.295 1.29997
406 0.0428253 0.537141 0.693794 0.760703 0.928827 0.609346 -0.463355 0.229652 -0.0245966 1.37958
1881 -0.770994 1.5063 0.904352 1.26446 1.37543 0.813958 -0.503716 0.55072 -0.533672 1.87148
1377 0.157607 0.50698 0.60104 0.807784 1.30196 0.591375 -0.402139 0.563232 -0.198527 1.11306
2807 -0.492577 1.42196 0.925161 1.17399 1.74028 0.943905 -0.437099 0.497361 -0.514996 1.85806
730 0.19264 0.64165 0.690336 0.825592 0.650228 0.591681 -0.0759678 0.339946 -0.0951099 1.51515
585 0.310879 0.295811 0.455158 0.88077 1.02557 0.367844 -0.119396 0.325081 -0.513816 1.60779
1501 0.228635 0.721078 0.626508 0.804815 0.891936 0.457331 -0.214797 0.489347 -0.520567 1.32303
1175 0.132613 0.398575 0.502015 0.815367 1.0655 0.508874 -0.627894 0.53783 0.0218806 1.33504
2830 -0.788647 1.59831 1.10708 1.18344 1.5029 0.711789 -0.511878 0.40212 -0.474927 1.67133
2104 -0.478992 1.5609 1.16231 1.29354 1.27905 0.953207 -0.644496 0.503475 -0.448816 1.74035
46 0.371376 0.0991074 0.753063 0.76955 0.621144 0.216373 -0.33025 0.111581 -0.175407 1.73809
3257 -0.461333 1.50122 0.83951 1.3425 1.49775 0.904431 -0.631732 0.667419 -0.756334 1.75675
2801 -0.690632 1.48157 1.19093 1.21147 1.52538 0.883712 -0.450791 0.310554 -0.396706 1.7207
108 0.359133 0.258719 0.42926 0.618654 1.01209 0.540989 -0.570659 0.177117 0.185146 1.7281
43 0.605925 0.106043 0.215199 0.570204 1.33911 0.511355 -0.512171 0.112211 -0.227364 1.59529
643 0.385795 0.559864 0.625497 0.924122 1.22689 0.449444 -0.374677 0.479576 -0.110169 1.23758
1509 0.105653 0.750509 0.613982 1.08576 1.28365 0.892668 -0.605589 0.230109 -0.236219 1.58747
1768 -0.517786 1.55244 1.16671 1.32119 1.272 0.920808 -0.480571 0.436735 -0.644143 1.8512
86 0.0493515 0.449503 0.996075 0.83798 1.08737 0.656349 -0.580896 0.525429 0.436289 1.04144
1034 -0.22714 0.881401 1.02112 1.11579 1.10772 0.66049 -0.263598 0.497687 -0.442168 1.68371
1811 -0.869688 1.23828 1.03007 1.2592 1.74297 0.817818 -0.506211 0.686652 -0.494044 1.64003
1346 0.283407 0.744212 0.688725 0.818391 1.04525 0.469176 0.134333 0.467577 0.120958 1.44854
1876 -0.413474 1.4818 1.08618 1.41567 1.61868 1.00514 -0.671907 0.374332 -0.59134 1.72911
2895 -0.6342 1.4166 0.968356 1.27232 1.42339 0.894748 -0.301133 0.719668 -0.443582 1.8227
1457 0.291301 0.527995 0.564224 0.799597 1.10005 0.741243 -0.376908 0.152336 -0.205342 1.2077
223 0.0768907 0.513249 0.782121 0.60137 0.984443 0.811847 -0.483439 0.534762 -0.15148 1.34041
1718 -0.374507 1.15985 0.86533 1.26782 1.63108 0.628328 -0.626762 0.249555 -0.511433 1.62013
728 0.100433 0.774373 0.855941 0.929463 0.97458 0.852375 -0.459303 0.53497 -0.0647992 1.52145
1515 -0.00146191 0.726027 0.671949 1.02236 1.07548 0.703882 -0.469381 0.269214 -0.265032 1.60135
3185 -0.381661 1.51307 0.922806 1.25203 1.39793 0.957094 -0.628602 0.643475 -0.365034 1.92756
2836 -0.860266 1.44734 1.12346 1.09203 1.52454 1.08345 -0.389023 0.367369 -0.510712 1.74143
1194 0.00248834 1.09257 0.826273 0.913464 0.923988 0.351547 -0.672197 0.326399 -0.32235 1.37435
2050 -0.602902 1.46727 0.774873 1.34858 1.5393 0.973597 -0.320707 0.770081 -0.53548 1.8136
750 -0.143191 0.45185 0.687621 1.19215 0.742953 0.621207 -0.388237 0.109647 0.0979761 1.5493
1535 -0.777472 1.31413 0.90285 1.17121 1.50497 1.118 -0.457922 0.628874 -0.409838 1.79153
2811 -0.461853 1.4445 1.09283 1.35261 1.13481 1.0809 -0.724555 0.587254 -0.497793 1.79043
1237 -0.337169 1.46427 0.905724 1.19035 1.46954 0.831889 -0.348364 0.406318 -0.43998 1.61776
1593 -0.675012 1.55451 0.820454 1.3777 1.44569 0.960079 -0.601488 0.507536 -0.513853 1.7154
2256 -0.40666 1.36175 0.980526 1.34552 1.60773 0.978785 -0.526445 0.389216 -0.492066 1.66735
85 0.26892 0.292617 0.357173 0.683539 0.935656 0.712269 -0.220873 0.0358907 -0.0157886 1.58281
1474 0.462488 0.793096 0.775102 0.426969 0.982069 0.487482 -0.518665 0.331571 -0.191637 1.28318
1511 -0.0559738 0.905518 0.675861 1.13017 1.15802 0.719747 -0.319976 0.342025 -0.29059 1.67524
616 -0.031201 0.655023 0.475396 0.695089 1.10368 0.800011 -0.411627 0.286998 0.297212 1.59084
2277 -0.587842 1.46341 1.07628 1.24107 1.58569 0.758399 -0.421929 0.454545 -0.54077 1.90712
1201 0.0284127 0.58064 0.751379 0.722378 0.936383 0.634532 -0.178819 -0.180564 -0.195403 1.48944
777 0.102364 0.363786 0.55632 0.901806 1.12502 0.759365 -0.392176 0.220266 0.0354823 1.24252
3451 -0.63155 1.40161 0.828389 1.32943 1.34626 1.03048 -0.636196 0.509158 -0.619182 1.85374
1970 -0.629595 1.4886 1.09616 1.53384 1.23023 1.00273 -0.472006 0.474606 -0.400746 1.68956
3420 -0.713548 1.42479 0.947489 1.16748 1.47757 0.926401 -0.607383 0.539955 -0.652814 1.78524
419 0.187106 -0.00740555 0.681146 0.744443 0.697041 0.574996 -0.31593 0.430777 -0.03508 1.76991
2592 -0.587053 1.68933 0.998919 1.48351 1.43218 0.992931 -0.352902 0.37808 -0.737465 1.67021
1900 -0.361525 1.35092 1.34394 1.28313 1.67724 0.936702 -0.584254 0.386853 -0.404398 1.82786
1969 -0.657009 1.44744 1.11071 1.36123 1.3141 0.902745 -0.30965 0.221231 -0.681032 1.87336
2851 -0.596086 1.36235 1.02654 1.19943 1.5161 0.684381 -0.646647 0.6228 -0.653785 1.79261
1160 -0.10716 0.848015 1.12057 0.920472 1.36936 0.689932 -0.516884 0.304012 -0.469438 1.42112
1744 0.129791 0.68159 0.715507 1.25194 1.33776 0.887887 -0.610363 0.248175 -0.219827 1.51212
3247 -0.469947 1.44442 1.14161 1.2368 1.38781 0.831304 -0.703147 0.389256 -0.619727 1.85193
1223 -0.0904285 0.602117 0.565502 1.16586 1.05316 0.74036 -0.201493 0.424413 -0.262613 1.55095
3460 -0.526029 1.39324 1.08594 1.3474 1.47284 0.82624 -0.583547 0.53946 -0.905423 1.73336
990 -0.0320453 0.459188 0.687751 1.29479 0.972097 0.536545 -0.156149 -0.1566 -0.0299418 1.33527
2055 -0.611267 1.32327 1.05339 1.44054 1.58581 0.812845 -0.426441 0.563817 -0.836261 1.7837
525 0.172774 0.384678 0.304584 0.474885 0.953663 1.13671 -0.881999 0.287422 -0.181998 1.75412
2118 -0.651125 1.56736 1.026 1.33817 1.42629 0.828921 -0.445803 0.581958 -0.348559 1.80807
26 -0.0947869 0.322632 0.519864 0.649969 1.19568 0.70483 -0.389937 0.386255 -0.101475 1.54977
1149 -0.561358 1.01833 0.946842 0.968432 1.24489 0.794177 -0.400905 0.261852 -0.522943 1.62732
2706 -0.723447 1.36477 1.10989 1.14273 1.48384 0.969867 -0.59081 0.262521 -0.741226 1.9142
1594 -0.536444 1.45752 1.07978 1.35116 1.49077 1.10341 -0.572641 0.727341 -0.547832 1.47995
856 0.109646 0.654263 0.461033 0.852877 1.61021 1.05951 -0.928395 0.379248 0.174364 0.811226
1001 0.0934995 0.572879 0.70352 0.964058 0.791726 0.265304 -0.312386 0.177461 -0.079546 1.54584
918 -0.467264 0.78406 0.498656 0.941027 1.06038 0.599374 -0.289648 0.391452 -0.332332 1.42286
2030 -0.478109 1.3239 0.987592 1.23773 1.68678 1.01589 -0.504847 0.572372 -0.434313 1.81722
22 0.0191383 0.499598 0.488109 0.740975 0.878134 0.473427 -0.374813 0.208267 0.0879535 1.6909
1467 0.103315 0.45823 0.635122 0.912297 0.906781 0.587931 -0.293277 0.612881 -0.289251 1.38037
1066 0.226455 0.176541 0.634206 0.665017 0.723303 0.77941 -0.168395 0.0683438 -0.406346 1.77635
1819 -0.359857 1.43373 1.04552 1.39267 1.66347 0.845253 -0.429403 0.593091 -0.493344 1.79304
1734 -0.48472 1.16581 0.887966 1.37175 1.47968 1.20819 -0.258536 0.563589 -0.470671 1.73433
3322 -0.630662 1.44438 0.73054 1.41771 1.30442 0.812298 -0.568928 0.662936 -0.478178 1.85778
229 -0.510666 1.18657 0.961728 1.25005 1.31555 0.908504 -0.3517 0.411046 -0.346717 1.64264
1912 -0.537798 1.46812 0.971992 1.39404 1.65183 0.752293 -0.547528 0.401593 -0.754565 1.79941
899 0.0257142 0.609146 0.733413 1.00147 0.949703 0.756536 -0.441106 0.363921 -0.0529033 1.30727
1520 -0.0628935 0.887395 0.674917 1.03201 1.19641 0.902244 -0.58958 0.273559 -0.105098 1.62239
1067 0.0487858 0.476134 0.731517 0.797057 0.818679 0.543565 -0.433668 0.498057 -0.0679256 1.35809
1592 -0.307845 0.966337 1.00918 1.53385 1.32241 0.718949 -0.375706 0.290353 -0.316456 1.79024
529 -0.313045 0.83919 0.618886 1.112 0.87622 0.823557 -0.576596 0.138155 -0.228178 1.62377
1928 -0.580667 1.34592 1.39536 1.66152 1.56743 0.6941 -0.540738 0.399947 -0.444336 1.69347
1857 -0.3511 1.37323 1.10922 1.39097 1.42223 0.871655 -0.598004 0.672548 -0.525659 1.62915
2652 -0.567518 1.34867 1.00908 1.33822 1.37796 0.913991 -0.473686 0.744564 -0.659615 1.74773
1729 -0.937199 1.44186 1.03456 1.52784 1.44459 0.772089 -0.565179 0.586515 -0.258228 1.59066
452 -0.0135319 0.601249 0.770767 1.0117 1.15976 0.781834 -0.648567 0.127292 -0.322721 1.23891
1002 0.0621851 0.595543 0.617018 1.08447 0.925699 0.612062 -0.43721 0.398729 -0.309818 1.67955
1787 -0.502092 1.6249 1.14892 1.40395 1.65266 0.915985 -0.726344 0.552212 -0.483006 1.80279
734 0.159196 0.422209 0.545174 0.669535 0.987609 0.782771 -0.39053 0.440091 -0.0259108 1.39547
233 0.0732182 0.563446 0.53175 0.649138 1.01064 1.02329 -0.575861 0.360407 -0.428154 1.30447
3071 -0.43985 1.40191 1.15783 1.53049 1.60164 0.84457 -0.297848 0.395647 -0.459112 1.54987
139 -0.0678288 0.789665 0.727512 1.1006 0.907245 0.59159 -0.0701881 -0.170411 -0.145518 1.25302
874 0.130857 0.32361 0.922862 0.9252 1.05132 0.797056 -0.235843 0.0186122 0.1481 1.21027
754 0.147341 0.240251 0.347921 0.592729 1.29084 1.11615 -0.717851 0.37318 -0.182064 1.12326
2921 -0.579015 1.34562 0.952957 1.29665 1.45911 1.15136 -0.550774 0.550887 -0.561212 1.76023
2896 -0.651285 1.40836 0.709527 1.32214 1.49244 0.981414 -0.452857 0.447067 -0.313929 1.87605
764 -0.419816 1.05624 0.902043 1.24926 1.24523 0.905548 -0.364239 0.232132 -0.381992 1.52073
1927 -0.546288 1.56993 1.14367 1.33175 1.56753 1.04469 -0.62043 0.324586 -0.558933 1.54345
2183 -0.579105 1.45191 1.07768 1.35322 1.59436 0.994156 -0.439194 0.342005 -0.612901 1.79803
2564 -0.69994 1.47452 0.997095 1.27102 1.53797 1.10773 -0.489104 0.442473 -0.446387 1.6137
794 0.194588 0.279105 0.655939 0.803611 1.05429 0.599721 -0.379082 0.268514 -0.154539 1.3677
3212 -0.393861 1.58104 0.946089 1.1893 1.46024 1.05704 -0.56124 0.369207 -0.529236 1.71865
2353 -0.667475 1.39113 1.28813 1.31903 1.31526 0.946024 -0.474918 0.68455 -0.618998 1.76869
3181 -0.534573 1.31373 0.971735 1.50247 1.58102 0.829001 -0.413528 0.626681 -0.500322 1.83701
997 0.594348 0.0674782 0.519877 1.07146 0.727069 0.0376232 -0.240631 0.358028 0.119464 1.75273
2044 -0.490065 1.52015 1.28298 1.57808 1.58847 0.879589 -0.644945 0.60335 -0.55172 1.57116
1630 -0.656508 1.56513 0.952562 1.01127 1.20078 1.06994 -0.423236 0.524044 -0.43577 1.96272
1752 -0.367204 1.18898 0.925051 1.52591 1.49321 1.00867 -0.725207 0.550258 -0.399002 1.56943
954 0.235999 0.547139 0.800883 0.552587 1.34285 0.335973 -0.564043 0.387658 -0.160069 1.18597
258 0.183403 0.367975 0.511355 1.03036 0.924428 0.455535 -0.417095 0.333189 -0.32403 1.48808
3416 -0.484364 1.25366 0.931827 1.35036 1.46325 0.72199 -0.539838 0.626444 -0.759575 1.80614
1541 -0.563641 1.41851 1.17553 1.44921 1.40377 0.888919 -0.289856 0.606049 -0.547209 1.62805
144 -0.263724 0.829705 0.801273 1.03546 1.01528 0.608417 -0.255841 0.357647 -0.490389 1.34836
2005 -0.322934 1.41564 1.02415 1.21984 1.66314 0.794341 -0.917934 0.485467 -0.852308 1.51869
2602 -0.380482 1.60661 1.02039 1.19786 1.36559 0.866177 -0.432522 0.552386 -0.664271 1.71375
1627 -0.328276 1.35749 1.002 1.37379 1.34418 1.06745 -0.342985 0.566328 -0.457601 1.88333
1637 -0.455179 1.30825 1.05073 1.49931 1.21822 1.01479 -0.47507 0.574882 -0.650073 1.72196
1709 -0.572178 1.64149 1.06337 1.363 1.41574 0.710775 -0.2289 0.406543 -0.603757 1.75737
928 -0.00823478 0.366019 0.407147 0.69402 0.858839 0.699545 -0.311407 0.261829 -0.336959 1.68241
3477 -0.733544 1.32991 1.2387 1.26292 1.5498 0.801269 -0.522017 0.264651 -0.560051 1.71219
1110 0.557606 0.357407 0.379644 0.768666 1.16851 0.860549 -0.327068 0.0653846 -0.0919672 1.34221
1702 -0.638091 1.25466 1.00576 1.49791 1.53808 1.00968 -0.662621 0.252522 -0.633652 1.66661
3314 -0.566738 1.43527 1.1318 1.42566 1.33734 1.00549 -0.447827 0.501836 -0.65273 1.67548
2864 -0.620518 1.19486 1.1909 1.47958 1.58184 0.872546 -0.59879 0.43391 -0.525261 1.66466
3345 -0.437389 1.55661 0.974151 1.20906 1.60485 0.655651 -0.484308 0.571565 -0.477113 1.81604
682 0.436993 -0.0263221 0.56492 0.845417 0.740763 0.479199 -0.792742 0.46973 -0.0279398 1.66849
2099 -0.742708 1.44187 1.12803 1.49314 1.35282 0.992168 -0.440066 0.446487 -0.640791 1.75963
3126 -0.452603 1.47053 1.00816 1.31055 1.59054 1.09644 -0.495869 0.564691 -0.461241 1.55343
1967 -0.616928 1.56929 1.05861 1.40511 1.568 0.639128 -0.464157 0.270895 -0.704091 1.68802
1366 0.187739 0.690765 0.642573 0.890636 0.911494 0.52772 -0.386264 -0.188847 -0.290812 1.38616
2736 -0.492864 1.18431 0.986428 1.39337 1.46987 0.979552 -0.629611 0.684062 -0.605017 1.74606
1767 -0.495274 1.2579 1.22829 1.48834 1.6042 0.701613 -0.634997 0.329955 -0.636425 1.59687
923 0.731242 -0.116419 0.325257 0.605242 0.979928 1.00661 -0.167523 0.308961 -0.281378 1.67327
105 0.490935 0.340544 0.321217 0.765712 1.22996 0.70245 -0.78365 0.120429 -0.155937 1.32331
1655 -0.596107 1.26614 1.09862 1.29042 1.57202 0.50162 -0.540157 0.551117 -0.613028 1.87718
2697 -0.68788 1.54151 1.24272 1.12183 1.46233 0.8495 -0.534548 0.747024 -0.439225 1.69008
933 0.406621 0.514018 0.635411 0.689768 0.773536 0.392185 -0.303134 0.151106 -0.50266 1.66303
3018 -0.391065 1.40898 1.02923 1.47864 1.58111 1.01695 -0.514914 0.629913 -0.568662 1.6459
2003 -0.596044 1.18536 1.00973 1.40931 1.59317 0.993027 -0.562441 0.527191 -0.599992 1.71152
1024 0.366936 0.405921 0.850421 1.04412 0.932869 0.561514 -0.419541 0.257452 -0.466396 1.21255
1722 -0.178796 0.979599 0.742754 1.42302 1.42927 0.904837 -0.36377 0.365504 -0.413256 1.65862
582 -0.612745 1.4296 0.996289 1.16822 1.31852 0.878113 -0.577135 0.779612 -0.556382 1.43314
1612 -0.581013 1.49452 1.04502 1.57977 1.47157 0.989081 -0.490226 0.556252 -0.730251 1.75165
955 0.143997 0.494816 0.68935 0.893209 0.902371 0.436036 -0.0998076 0.0785085 0.00674306 1.54057
1721 0.0946612 0.657369 0.695344 1.3273 1.22272 0.85952 -0.48861 0.353936 -0.179792 1.61903
1298 -0.366633 0.852432 0.683893 0.806395 1.40021 0.31568 -0.364329 0.49409 -0.366797 1.6906
1659 -0.820385 1.38507 0.947144 1.53759 1.20932 1.09665 -0.490885 0.513553 -0.65835 1.62577
470 0.738503 0.0828446 0.457111 0.760129 0.985782 0.672146 -0.519726 0.403761 -0.114489 1.46558
1322 0.491131 0.0549946 0.209597 1.10165 1.1065 0.232059 -0.147756 0.337987 -0.20756 1.74821
175 0.290023 -0.0614917 0.263513 0.532286 0.884019 0.863533 -0.474607 0.253615 -0.0881233 1.73137
2936 -0.478804 1.32438 0.915723 1.30471 1.63107 1.16823 -0.775218 0.389841 -0.382702 1.64654
208 0.109137 0.263197 0.724851 0.572693 1.17791 0.583892 -0.195342 0.304205 0.0276407 1.54806
1367 0.173443 0.438558 0.354873 0.979198 0.865259 0.706983 -0.316522 0.875859 -0.146105 1.38338
145 0.152987 0.465402 0.730336 0.978671 1.16377 0.27452 -0.652295 0.657108 -0.369355 1.23574
3571 -0.838288 1.55197 1.16178 1.48784 1.4966 0.891336 -0.573814 0.545883 -0.525632 1.60773
163 0.00548519 0.639108 0.720052 0.94389 0.787766 0.715558 -0.170086 0.314823 -0.307607 1.35509
124 0.259368 0.306378 0.860148 0.98388 0.9465 1.07399 -0.224117 0.120916 0.0175915 1.00365
1754 -0.334042 1.12623 0.991897 1.61823 1.42916 0.928858 -0.592245 0.401409 -0.198867 1.84504
201 0.244952 0.394468 0.331586 0.806867 1.14437 0.652323 -0.741294 0.310374 0.101512 1.45734
179 0.182736 0.318101 0.504136 0.927247 0.902819 0.585821 -0.413493 0.263006 -0.384962 1.45958
860 0.271861 0.220291 0.48985 0.492385 1.0679 0.491539 -0.584846 0.282422 -0.240651 1.50337
2372 -0.572099 1.34364 1.01006 1.44378 1.4027 0.870088 -0.570983 0.648941 -0.663098 1.73164
2844 -0.307246 1.46874 1.08686 1.3119 1.33669 1.13941 -0.411039 0.638457 -0.615901 1.72456
441 -0.0219954 0.564493 0.676127 1.04639 0.852938 0.554533 -0.54253 0.306524 0.000750038 1.29747
3517 -0.431392 1.39387 1.07566 1.37099 1.53418 0.885597 -0.594479 0.489827 -0.450537 1.66413
2247 -0.747663 1.50886 0.938518 1.58365 1.29934 0.858264 -0.526396 0.544489 -0.630007 1.74537
3224 -0.403213 1.50191 0.845593 1.39547 1.56383 1.0106 -0.376817 0.484202 -0.374503 1.78058
934 0.324489 0.344977 0.997141 0.955421 1.62834 0.298138 -0.485136 -0.130906 -0.067374 1.20972
3513 -0.328745 1.22647 1.06411 1.32767 1.3012 1.20544 -0.2133 0.714961 -0.726547 1.82604
538 0.145487 0.632878 0.823381 0.748829 1.03036 0.646181 -0.456061 0.394327 -0.0178184 1.30158
717 0.318533 0.576209 0.692921 0.597024 0.807811 0.611357 -0.408335 0.0406692 -0.375066 1.4451
2484 -0.542762 1.52302 1.0203 1.44512 1.39973 0.571109 -0.299533 0.527411 -0.59586 1.8363
2093 -0.390069 1.35828 1.13316 1.53392 1.62896 0.929315 -0.394486 0.59275 -0.645277 1.58417
2419 -0.278598 1.4995 1.22656 1.57407 1.42641 0.966671 -0.421381 0.393959 -0.625865 1.55902
982 -0.168139 0.473916 0.616404 1.0144 0.80376 0.994913 -0.336995 0.496055 0.0548597 1.2352
299 0.242743 0.385354 1.15091 0.360368 0.830218 0.521363 -0.044671 0.345054 0.162106 1.46256
352 -0.213936 0.584811 0.824803 0.624082 1.05807 0.687536 -0.545425 0.0537643 -0.0924525 1.28773
1735 -0.502051 1.31499 1.15163 1.40699 1.5844 0.865805 -0.391678 0.543688 -0.426405 1.77671
3343 -0.489444 1.1987 1.03816 1.55529 1.29006 0.887299 -0.493901 0.490741 -0.498533 1.86729
1995 -0.464422 1.68672 1.11206 1.46795 1.26978 1.01311 -0.15469 0.465236 -0.555396 1.65119
1097 -0.482357 1.26383 0.963524 1.17711 1.3874 0.910144 -0.507662 0.545458 -0.560162 1.39594
3164 -0.611944 1.26796 1.36952 1.36006 1.63483 0.754509 -0.555767 0.60978 -0.646741 1.75974
3334 -0.738626 1.32801 1.21907 1.24137 1.47802 0.828033 -0.345812 0.513393 -0.632291 1.73917
3278 -0.417284 1.37024 1.05539 1.44719 1.37776 0.92955 -0.370084 0.431609 -0.450472 1.71816
1883 -0.513077 1.5217 1.18263 1.31591 1.35155 0.849377 -0.646215 0.454179 -0.705185 1.6338
1878 -0.58024 1.36668 0.929911 1.2898 1.6701 0.969871 -0.534823 0.639475 -0.703521 1.61934
835 0.012512 0.760564 0.306748 0.743263 0.836923 0.773026 -0.547453 0.20764 -0.316381 1.45385
1933 -0.523843 1.4109 0.972242 1.29866 1.43813 0.893 -0.687182 0.565718 -0.641418 1.87265
563 0.120247 0.400455 0.594009 0.712529 1.03973 0.500123 -0.331597 0.141056 -0.23321 1.77818
2445 -0.765472 1.41566 0.992115 1.29791 1.35469 0.890058 -0.412287 0.347596 -0.508901 1.81802
539 0.0753371 0.513283 0.584702 0.800421 1.15698 0.651115 -0.430248 0.0873419 -0.355737 1.2823
1853 -0.52975 1.69007 1.00711 1.49386 1.56418 0.927854 -0.463991 0.447922 -0.614339 1.63848
1336 -0.305656 1.36148 0.9028 1.10648 1.28147 0.756692 -0.351826 0.577172 -0.397329 1.53189
1840 -0.680102 1.43393 0.941674 1.22581 1.66779 0.992596 -0.577491 0.6758 -0.391177 1.65291
2759 -0.653773 1.36194 0.993226 1.46008 1.41449 0.796437 -0.47878 0.52416 -0.721879 1.77833
1992 -0.465052 1.44048 1.0477 1.60213 1.50891 1.0373 -0.483298 0.398094 -0.563601 1.76014
1057 0.698084 -0.0317002 0.69882 0.555493 0.750632 0.5642 -0.126892 0.184655 -0.473652 1.70656
2065 -0.562643 1.26096 1.09173 1.4029 1.64248 0.923347 -0.672808 0.563333 -0.62545 1.59669
2820 -0.421387 1.43437 1.01167 1.35897 1.32516 0.983559 -0.261704 0.536775 -0.640271 1.83912
130 0.187523 0.137523 0.708568 0.808076 1.13566 0.78657 -0.364811 0.793202 -0.0575182 1.23603
1747 -0.072021 0.910498 0.677225 1.19344 1.329 0.904022 -0.661517 0.334925 -0.215153 1.78222
3552 -0.537809 1.41757 1.00476 1.31185 1.38619 0.829675 -0.382728 0.507517 -0.480269 1.83992
2029 -0.572065 1.50041 1.15342 1.34386 1.51136 0.991837 -0.578877 0.483237 -0.615391 1.78444
2489 -0.576828 1.33138 1.05724 1.18735 1.64339 0.870607 -0.459769 0.327888 -0.344264 1.78284
1068 0.208333 0.587146 0.502146 0.974313 0.87847 0.546805 -0.297163 0.320018 -0.0997177 1.52204
2611 -0.476358 1.38977 0.907781 1.46456 1.45296 0.622902 -0.423022 0.631058 -0.656569 1.80629
254 -0.591012 1.26831 0.954357 1.18366 1.25579 0.750545 -0.413659 0.555256 -0.664147 1.72945
2444 -0.519621 1.42416 1.20072 1.32412 1.42115 0.823897 -0.508544 0.562864 -0.727925 1.8239
2940 -0.139675 1.23791 0.729273 1.45603 1.53826 0.849332 -0.391724 0.713848 -0.496674 1.83189
265 0.158922 0.499763 0.690192 0.660228 1.02211 0.515612 -0.532537 0.372765 0.00554482 1.36461
3432 -0.449784 1.00728 1.05273 1.31053 1.66997 0.917288 -0.57146 0.384853 -0.876113 1.76166
440 0.415228 0.126706 0.357248 0.998659 0.733386 0.32797 -0.442527 0.624492 0.0559813 1.70446
977 0.431132 -0.104984 0.49624 0.611043 0.550327 0.749838 -0.322014 0.177309 -0.277453 1.94178
2341 -0.497466 1.36353 1.0356 1.42048 1.61189 0.797653 -0.555233 0.645172 -0.638673 1.63143
2221 -0.582911 1.46486 1.08807 1.30527 1.44538 0.985246 -0.515643 0.57149 -0.694306 1.6253
1823 -0.482831 1.30756 1.20638 1.29537 1.59529 0.920652 -0.439971 0.650824 -0.469305 1.66855
1316 0.044919 0.223 0.402527 1.01064 0.871915 0.807385 -0.384835 0.329428 -0.0545223 1.41844
44 0.0946759 0.193846 0.471065 0.813583 0.725916 0.56938 -0.63575 0.048603 0.202388 1.75753
2879 -0.605827 1.44002 0.961554 1.25181 1.41267 0.816577 -0.520623 0.721593 -0.711244 1.87951
2264 -0.403576 1.24697 1.07309 1.68098 1.47155 0.825992 -0.603033 0.384874 -0.675275 1.5891
2102 -0.499013 1.52814 1.07345 1.38032 1.72982 0.897272 -0.306615 0.416522 -0.553154 1.44006
430 0.104785 0.42919 0.406508 0.945355 1.02689 0.571227 -0.435066 0.558282 -0.223518 1.72275
2120 -0.566965 1.39099 1.11842 1.25937 1.61546 0.735264 -0.240075 0.566821 -0.419802 1.78687
1309 0.70281 0.253388 0.645305 0.558459 1.19887 0.658587 -0.287516 0.425106 -0.118283 1.36075
25 0.372794 0.292611 0.695469 0.949009 0.971476 0.686407 -0.602285 0.120967 -0.0877437 1.2371
2265 -0.616432 1.5104 1.09064 1.35824 1.47255 0.693565 -0.475222 0.480559 -0.517032 1.85607
2302 -0.377441 1.42559 0.895376 1.37674 1.55234 0.953175 -0.6216 0.673084 -0.701772 1.56709
963 -0.230793 0.787251 0.828705 1.15164 1.2841 0.86222 -0.599176 0.461232 -0.279941 1.5054
1916 -0.832868 1.4327 1.01686 1.48527 1.58991 0.897839 -0.350617 0.589403 -0.523567 1.51359
1604 -0.601576 1.47013 1.02282 1.38075 1.35797 1.0733 -0.465311 0.249468 -0.629751 1.69097
41 0.0768771 -0.0133899 0.478004 0.629739 1.23926 0.655695 -0.489812 0.144927 0.0149471 1.53538
3235 -0.500471 1.38432 1.1155 1.6215 1.23602 0.893036 -0.31721 0.567188 -0.577347 1.71706
1487 0.167955 0.389394 0.46237 0.565913 0.967716 0.764087 -0.50512 0.320767 -0.312567 1.65598
1579 -0.579791 1.28217 1.08938 1.3433 1.38335 1.11777 -0.53258 0.572212 -0.626632 1.67624
3468 -0.335471 1.40039 0.96049 1.42912 1.41834 1.20247 -0.412796 0.631058 -0.549456 1.66488
1886 -0.646879 1.0083 1.12372 1.36812 1.7694 1.12529 -0.428682 0.424187 -0.563162 1.47421
2948 -0.581001 1.27747 1.10954 1.22774 1.69211 0.717221 -0.522269 0.320658 -0.526604 1.66985
3406 -0.603457 1.46372 1.25263 1.31375 1.29283 0.872566 -0.327953 0.474447 -0.519269 1.73759
650 -0.0510926 0.691541 0.747893 1.02098 0.737513 0.657385 -0.637585 -0.0488982 -0.307203 1.53461
1321 0.400158 -0.125003 0.261089 0.794736 0.606298 0.924128 -0.354099 0.00516915 0.34679 2.02561
3393 -0.480923 1.33278 1.05243 1.5357 1.59765 0.844852 -0.716506 0.450809 -0.709211 1.49659
1755 -0.513214 1.408 1.17786 1.47322 1.52679 0.644991 -0.404503 0.656972 -0.361946 1.58758
1537 -0.558124 1.08926 1.18002 1.49798 1.483 0.952002 -0.522735 0.351686 -0.495203 1.68094
1553 -0.644657 1.36515 1.19621 1.25988 1.60432 1.06476 -0.353914 0.551789 -0.315996 1.69865
103 -0.585582 1.31711 1.00807 1.18988 1.55953 0.884988 -0.520864 0.511939 -0.60521 1.34209
1892 -0.608708 1.60439 1.21027 1.21607 1.56551 0.761991 -0.481193 0.638511 -0.48233 1.76424
636 -0.447105 1.3092 0.967611 1.17104 1.34676 0.884665 -0.355454 0.295341 -0.596005 1.60518
1667 -0.56831 1.62794 1.08936 1.32847 1.43951 0.991998 -0.460978 0.591049 -0.586765 1.78939
1422 0.331841 0.640426 0.766476 1.10551 1.03769 0.939707 -0.251602 0.308277 -0.282758 1.18773
313 0.130606 0.568791 0.660701 0.936007 1.15356 0.691469 -0.7937 0.330237 0.00300024 1.32292
1720 -0.0743826 0.842556 0.970278 1.3578 1.41146 0.879874 -0.407123 0.281375 -0.236766 1.56739
2624 -0.5462 1.16769 1.27381 1.50066 1.46585 0.861185 -0.123431 0.578369 -0.60201 1.68136
557 0.261793 0.423931 0.844117 0.902677 0.91648 0.655879 -0.5931 0.414667 0.290676 1.14578
2665 -0.589643 1.44468 1.14713 1.22873 1.50229 1.2028 -0.5127 0.392783 -0.396411 1.6071
2881 -0.686449 1.35042 1.00967 1.12702 1.591 0.986395 -0.670479 0.37669 -0.652329 1.64924
1801 -0.471756 1.59334 1.30283 1.50547 1.31572 0.743222 -0.35923 0.310191 -0.533817 1.75656
925 0.175476 0.295797 0.515339 0.835719 1.25261 0.516592 -0.887622 0.447841 -0.0847942 1.34159
2076 -0.431648 1.49598 1.20997 1.51651 1.33274 0.880863 -0.29765 0.15387 -0.504984 1.71371
637 -0.539858 1.06104 0.810199 1.13253 1.12848 0.791437 -0.430166 0.423578 -0.648629 1.59307
2101 -0.610561 1.26354 1.28012 1.44691 1.45957 1.05157 -0.573163 0.382613 -0.766007 1.69568
2240 -0.670759 1.37456 0.996977 1.6512 1.48504 1.12433 -0.265938 0.321689 -0.51042 1.68687
1324 0.33098 0.206302 0.207007 0.944781 1.1216 0.232133 -0.376926 0.474805 -0.162193 1.76481
2513 -0.414278 1.30294 1.18874 1.41045 1.34414 0.706156 -0.63926 0.309919 -0.715818 1.75619
2195 -0.553487 1.37109 1.06615 1.2714 1.4141 0.817793 -0.26753 0.598681 -0.490489 1.88508
3162 -0.488418 1.47446 0.983031 1.30445 1.39964 1.10577 -0.441279 0.179948 -0.761976 1.7859
1368 0.233854 0.31779 0.395814 0.770225 0.864159 0.867737 -0.605447 0.106151 -0.173674 1.58564
364 0.353026 0.21787 0.487229 0.800283 1.12592 0.78947 -0.142505 0.240124 -0.310031 1.49644
3444 -0.628819 1.2313 1.12719 1.75872 1.41056 0.743931 -0.366532 0.577496 -0.46869 1.53458
1802 -0.799105 1.44422 1.12056 1.41617 1.49001 0.970361 -0.534294 0.202954 -0.619447 1.90396
2666 -0.515857 1.23055 1.16883 1.44155 1.46566 0.894605 -0.338814 0.464764 -0.414181 1.81041
1208 -0.344729 1.14559 0.768632 0.994832 1.2213 0.90684 -0.480446 0.437338 -0.752102 1.61058
1812 -0.607322 1.475 1.07811 1.32703 1.38926 1.02903 -0.427791 0.504014 -0.492493 1.76419
1236 0.021177 0.279696 0.79404 1.02963 1.28791 0.709074 0.131951 0.318975 -0.219226 1.21912
952 0.152239 0.386127 0.641815 0.774017 0.991571 0.623566 -0.574773 0.378173 -0.052555 1.45631
592 0.137551 0.301478 0.714853 0.388648 0.795538 0.864372 -0.328954 0.726406 -0.0999389 1.55769
3048 -0.564453 1.33785 0.971757 1.25561 1.60984 0.776395 -0.488073 0.374931 -0.638359 1.88625
2727 -0.528395 1.48608 1.03306 1.54811 1.66525 0.891207 -0.635049 0.376485 -0.661405 1.57371
3494 -0.386846 1.33503 1.05172 1.26647 1.58989 0.888831 -0.438476 0.491051 -0.491376 1.71626
1075 0.133653 0.548721 0.853924 0.780855 0.893493 0.677038 -0.339568 0.267806 -0.274266 1.27864
1145 0.328905 0.303402 0.386236 0.798354 0.575474 0.602429 -0.333813 0.39546 -0.411966 1.96949
2996 -0.481886 1.50669 1.02228 1.50191 1.56388 0.70172 -0.415122 0.605441 -0.450097 1.64408
698 0.262553 0.358162 0.513289 0.531424 0.704407 0.745011 -0.09737 0.0949452 0.228906 1.84641
2429 -0.707425 1.52805 0.855586 1.32421 1.6283 1.01412 -0.59644 0.269672 -0.548332 1.62082
2931 -0.680805 1.45605 1.05168 1.38424 1.28051 1.05634 -0.377586 0.261654 -0.721068 1.75525
2576 -0.708638 1.26608 1.04145 1.45927 1.70974 0.882188 -0.656079 0.495873 -0.758593 1.52417
2673 -0.434266 1.24739 0.80758 1.32163 1.40993 0.990533 -0.591953 0.43406 -0.657781 1.93283
1806 -0.533044 1.44481 0.88242 1.51207 1.36617 0.943689 -0.358875 0.580874 -0.676923 1.68704
1234 0.433633 0.552017 0.780847 0.961424 1.17095 0.590284 -0.17004 0.0364433 -0.0575748 1.0327
3542 -0.521594 1.07448 1.05773 1.57164 1.61928 0.848752 -0.413174 0.182005 -0.519641 1.84002
2273 -0.624623 1.43167 1.29319 1.28263 1.36316 0.920909 -0.439441 0.463021 -0.70656 1.76752
521 0.530341 0.142525 0.42013 0.799329 0.666527 0.698632 -0.145283 0.300093 -0.710078 1.70536
73 -0.0927413 0.361989 0.38736 0.982466 0.969816 0.912086 -0.267379 0.0669675 -0.0300239 1.38064
2142 -0.737329 1.22508 1.02993 1.59318 1.17643 0.908478 -0.465416 0.397247 -0.679245 1.89622
3564 -0.574978 1.49628 0.994909 1.32065 1.29521 1.00372 -0.208075 0.348799 -0.492983 1.89662
811 -0.403597 1.21335 0.855438 1.24902 1.40309 0.948416 -0.365099 0.438473 -0.382373 1.61525
1817 -0.500262 1.49092 1.10807 1.30536 1.58268 1.04569 -0.494521 0.418015 -0.46598 1.79566
2201 -0.675581 1.47276 0.838653 1.18819 1.53576 0.997858 -0.45472 0.588829 -0.4524 1.74899
2837 -0.428255 1.24833 1.00346 1.27652 1.60249 0.854782 -0.730062 0.451781 -0.631953 1.74309
1279 0.258148 0.605712 0.62485 0.792355 0.876821 0.53388 -0.334324 -0.058768 -0.261618 1.45226
2146 -0.516033 1.59536 1.11486 1.53498 1.5763 0.886538 -0.358705 0.443667 -0.44218 1.74252
2402 -0.355907 1.3276 0.988841 1.41775 1.3872 0.670097 -0.390703 0.585943 -0.655677 1.9905
653 0.402515 0.424336 0.84606 1.21043 0.868566 0.461422 -0.208799 0.499968 0.301027 1.13492
2070 -0.317675 1.36838 1.31122 1.44035 1.53399 0.90841 -0.246596 0.599492 -0.506055 1.67657
287 0.37865 -0.00685979 0.424199 0.684772 0.580305 0.551318 -0.166092 0.278125 -0.309766 1.98483
3179 -0.501175 1.29627 1.10563 1.38107 1.03105 0.564397 -0.451788 0.60802 -0.879373 1.96648
738 0.140747 0.243019 0.664892 0.725794 0.945277 0.66051 -0.10421 0.351124 0.126935 1.54274
2614 -0.363395 1.44953 0.859952 1.38897 1.38222 0.997888 -0.609167 0.631953 -0.410548 1.82252
2368 -0.596431 1.57612 1.05541 1.26314 1.45759 1.1534 -0.565729 0.326155 -0.198052 1.74447
1821 -0.573951 1.46734 0.974136 1.56086 1.59215 0.722364 -0.53005 0.451702 -0.491351 1.91041
2315 -0.554411 1.2491 1.0701 1.47458 1.52922 0.855357 -0.468995 0.577127 -0.503516 1.78314
3419 -0.617968 1.22457 1.05109 1.42736 1.58081 0.998358 -0.522473 0.371683 -0.522615 1.71378
2828 -0.65092 1.28419 0.950756 1.39389 1.57223 1.07879 -0.324818 0.469778 -0.698025 1.63793
2504 -0.767296 1.45406 1.11861 1.40369 1.39762 0.707318 -0.384552 0.384079 -0.504428 1.78212
584 0.136832 0.152798 0.566867 1.21495 0.842917 0.616294 -0.558862 0.356724 -0.0438291 1.44829
191 0.240998 0.65612 0.637807 0.537558 0.871811 0.675415 -0.334904 0.173397 -0.339118 1.33572
981 0.301245 0.653048 0.788135 0.805421 1.18289 0.538081 -0.364757 0.136817 -0.113206 1.19538
28 -0.0265129 0.514822 0.661075 0.826335 0.941056 0.842269 -0.477621 0.387086 0.196318 1.3379
2994 -0.534183 1.52565 1.11756 1.14399 1.50093 0.867726 -0.527825 0.387028 -0.796428 1.80475
127 0.147425 0.469125 0.457879 0.746338 0.826225 0.686663 -0.311435 0.404754 -0.181579 1.73919
1183 0.506851 0.674582 0.672789 0.976959 0.902523 0.662597 -0.313512 0.195212 -0.211095 1.36634
1447 0.224578 0.235727 0.539234 0.800064 0.755198 0.556226 -0.366925 0.279737 -0.645269 1.67984
959 0.0248104 0.304154 0.569369 0.928934 1.01047 1.00882 -0.461162 -0.099437 0.171761 1.31019
136 -0.25071 1.27889 0.896282 1.06608 1.29635 0.835701 -0.50412 0.549337 -0.444661 1.51109
2232 -0.523813 1.39995 0.979588 1.3185 1.68421 0.921464 -0.361879 0.542097 -0.304244 1.73772
1274 0.055812 0.318987 0.817597 0.851276 0.998809 0.840707 -0.277156 0.116836 0.0161206 1.21454
472 -0.192178 0.716383 0.704753 0.862097 0.867856 0.846066 -0.403391 0.268595 -0.431124 1.46529
561 -0.146313 0.503172 0.730152 1.23187 0.488628 0.887145 -0.513164 -0.0170177 0.0899936 1.32123
3366 -0.558737 1.60358 1.20832 1.20691 1.47003 0.693496 -0.334906 0.462336 -0.53197 1.79001
2309 -0.701821 1.46634 0.938669 1.36908 1.16051 1.06038 -0.477298 0.402291 -0.385 1.89698
1731 -0.540828 1.46429 1.26903 1.28973 1.16237 0.89479 -0.43787 0.542078 -0.322479 1.79343
2202 -0.50057 1.46418 1.1839 1.38092 1.35882 0.896877 -0.299603 0.351706 -0.435209 1.74039
3082 -0.41316 1.43049 1.20691 1.43653 1.52079 0.961652 -0.458874 0.575996 -0.722793 1.40732
1191 0.366629 0.259946 0.6301 0.660061 0.886258 0.472886 -0.504108 0.130041 -0.0132381 1.64741
3281 -0.49957 1.56161 1.29897 1.3589 1.63215 0.704512 -0.260524 0.347019 -0.625473 1.42009
629 0.100454 0.338878 0.935355 0.813821 0.805793 0.616158 -0.00569319 0.307133 -0.151271 1.34977
1384 0.0585086 0.36886 0.721624 1.02604 1.39885 0.049583 -0.891799 0.198277 0.131092 1.20531
1707 -0.467466 1.0312 1.00544 1.56539 1.62568 0.757012 -0.303396 0.633536 -0.42562 1.76876
2716 -0.513767 1.43917 0.884911 1.36344 1.44435 0.910471 -0.509615 0.401805 -0.609215 1.80007
2839 -0.472531 1.51246 1.00623 1.49315 1.53459 1.02475 -0.342766 0.197256 -0.529571 1.6562
2640 -0.418242 1.48173 0.841649 1.20273 1.36558 0.918087 -0.711297 0.580715 -0.84185 1.71631
2023 -0.77637 1.54451 1.05329 1.23962 1.44168 0.911946 -0.378466 0.331762 -0.739562 1.60509
135 0.16806 0.248716 0.807952 0.713957 1.19582 0.710525 -0.456871 0.0222762 -0.164459 1.19481
995 0.316558 0.462618 0.62013 0.786961 0.941639 0.808673 -0.394114 0.502594 0.068038 1.27235
791 0.260206 0.261031 0.806384 0.711801 0.73325 0.64764 0.115558 0.124803 -0.364102 1.62841
2166 -0.661298 1.3751 1.15942 1.50055 1.35764 0.899083 -0.27406 0.819184 -0.592428 1.64531
667 0.0510816 0.617752 0.634858 0.940677 0.968944 0.485019 -0.246724 0.0299122 -0.145629 1.37316
1048 0.414536 0.314892 0.387819 0.867765 0.950226 0.623058 -0.494581 0.205778 -0.087854 1.58311
2235 -0.627899 1.49633 1.01162 1.52472 1.50128 0.837792 -0.347949 0.271573 -0.657855 1.64101
3560 -0.583223 1.29102 1.23534 1.33037 1.33917 0.93125 -0.297417 0.493813 -0.62142 1.78402
759 0.156299 0.397817 0.568909 0.841632 0.825077 0.691353 -0.399936 0.0618426 -0.111587 1.60489
931 0.245532 0.325279 0.442236 1.02887 0.748726 0.542611 -0.525575 0.484785 -0.134562 1.55539
99 -0.00193256 0.602424 0.612737 1.17187 1.09532 0.779399 -0.271542 0.397444 -0.326825 1.11746
929 0.207552 0.0168896 0.737742 0.682708 0.968623 0.275826 -0.605036 0.535758 -0.0948773 1.57104
2669 -0.530235 1.59102 1.15463 1.58791 1.41585 1.10077 -0.41906 0.376162 -0.499374 1.36093
2870 -0.489724 1.50645 0.900483 1.39317 1.17279 0.8819 -0.719252 0.504299 -0.795307 1.96783
3442 -0.470272 1.47935 1.44805 1.37526 1.10039 1.10721 -0.54789 0.479374 -0.678177 1.57521
35 -0.342397 0.884666 0.812057 1.03133 1.13321 0.6841 -0.457163 0.603325 -0.444696 1.22064
1623 -0.605472 1.53566 1.0777 1.40606 1.31666 0.748901 -0.570372 0.187319 -0.550515 1.85283
771 0.0115467 0.839213 0.679552 1.1905 1.06967 0.750134 -0.248168 0.255028 -0.262226 1.66559
459 0.0464162 0.578076 0.617642 1.02767 0.727875 0.413775 -0.334287 0.0830996 -0.0388738 1.52217
1420 0.10526 0.482565 0.546283 0.988367 0.792352 0.722701 -0.389667 -0.0169799 0.0606777 1.41809
454 0.225426 0.359085 0.73585 0.63537 0.936108 0.230248 -0.581401 0.457859 -0.320806 1.46554
329 0.0791782 0.519983 0.694413 0.946484 0.941162 0.196523 -0.645423 0.306311 -0.156366 1.37978
3250 -0.756936 1.47633 1.10928 1.53245 1.41108 0.724856 -0.623407 0.527971 -0.465662 1.50862
2567 -0.753226 1.39562 1.15214 1.34524 1.46635 0.753705 -0.471708 0.68929 -0.405069 1.71725
3220 -0.467881 1.36358 0.984398 1.36588 1.51814 0.739457 -0.717946 0.754896 -0.498279 1.73374
1613 -0.563799 1.31999 1.13972 1.41707 1.48542 0.68854 -0.470076 0.57988 -0.348114 1.79351
2238 -0.425049 1.26618 1.06454 1.30317 1.58597 0.803417 -0.512896 0.29584 -0.736688 1.85147
722 -0.457896 0.747668 0.46973 1.26402 1.25898 0.501387 -0.577345 0.230859 -0.173966 1.40857
1437 -0.492484 1.30426 0.821125 1.36084 1.31452 0.742064 -0.266236 0.224735 -0.535945 1.62719
1786 -0.517539 1.23609 1.04797 1.45607 1.43356 0.759378 -0.428299 0.660881 -0.438122 1.88831
2081 -0.559951 1.45625 1.30705 1.43372 1.50703 0.688321 -0.322668 0.365603 -0.426672 1.59547
2848 -0.630785 1.53236 1.04369 1.58575 1.58153 0.95536 -0.366916 0.408218 -0.745823 1.55958
304 -0.581297 1.34043 0.96244 1.29565 1.41144 0.722873 -0.471427 0.372601 -0.651249 1.60112
216 -0.0558139 0.652662 0.635665 0.870844 0.964287 0.782542 -0.559662 0.427532 -0.348034 1.15549
3172 -0.348263 1.44286 1.15481 1.45026 1.67711 0.919653 -0.436271 0.433427 -0.24462 1.67127
1046 0.024485 0.456165 0.708495 1.00611 0.828592 0.547308 -0.182215 0.389834 0.264289 1.47777
2083 -0.556256 1.51005 1.13176 1.3276 1.42131 0.68126 -0.396764 0.614478 -0.553604 1.81559
3335 -0.661852 1.45129 1.12878 1.4296 1.49065 0.777828 -0.352893 0.446115 -0.700183 1.67376
2491 -0.483085 1.47278 1.13094 1.34993 1.60789 0.831666 -0.477056 0.516232 -0.578186 1.65351
1565 -0.341876 1.56294 1.0847 1.67004 1.37433 0.758368 -0.455877 0.345837 -0.467138 1.63409
153 -0.451874 1.2619 1.09001 1.21662 1.42918 0.924812 -0.366162 0.721522 -0.45368 1.48896
2971 -0.634041 1.12207 1.15683 1.3208 1.655 0.866703 -0.625078 0.237257 -0.528364 1.64223
2392 -0.558929 1.55527 0.940656 1.29574 1.65668 1.00003 -0.372702 0.544169 -0.540931 1.60319
2619 -0.411913 1.24142 1.13925 1.43415 1.4049 0.752374 -0.635591 0.411864 -0.902795 1.70958
2797 -0.547625 1.40161 1.19973 1.29757 1.44355 1.13452 -0.501331 0.463444 -0.307001 1.66334
801 -0.332005 0.354971 0.430366 0.778358 0.890765 0.626728 -0.196391 0.333507 -0.0217628 1.98567
2213 -0.500608 1.6504 1.08126 1.5298 1.52457 0.819423 -0.478179 0.244638 -0.811958 1.82573
2796 -0.723484 1.40149 0.903156 1.3409 1.59457 1.08638 -0.433295 0.551474 -0.222684 1.72991
2156 -0.562124 1.21639 1.02079 1.35055 1.47278 0.852758 -0.631231 0.587905 -0.777643 1.70092
2074 -0.482317 1.43356 0.893264 1.57887 1.56636 0.690567 -0.38627 0.361489 -0.622259 1.63505
1708 -0.506052 1.27084 0.959217 1.43848 1.67823 0.84979 -0.426939 0.292837 -0.578358 1.64429
1704 -0.565843 1.50015 1.13394 1.27991 1.34457 1.07717 -0.525041 0.593492 -0.428812 1.66379
3291 -0.293301 1.78015 1.20027 1.29418 1.20074 0.944944 -0.274653 0.25675 -0.332529 1.73886
660 0.126165 0.550717 0.384608 0.874735 0.934927 0.696605 -0.465891 0.293072 -0.229183 1.44461
1894 -0.753813 1.54328 0.851836 1.14108 1.44151 0.848518 -0.538018 0.697692 -0.426758 1.78615
1575 -0.62683 1.33633 1.12215 1.51187 1.47839 0.854442 -0.414134 0.157318 -0.406228 1.80324
2488 -0.785886 1.42444 0.917296 1.47814 1.34212 1.00784 -0.566926 0.523044 -0.59326 1.78411
2427 -0.433459 1.4145 1.20946 1.28405 1.67097 0.922191 -0.543555 0.427945 -0.566909 1.72744
2331 -0.0841251 1.35248 1.30189 1.60926 1.35501 0.916147 -0.489168 0.530142 -0.337573 1.56783
3087 -0.522321 1.52931 1.0148 1.39385 1.39751 0.901068 -0.270088 0.473993 -0.686305 1.76154
3116 -0.527627 1.54418 1.187 1.33965 1.47171 0.707284 -0.440657 0.16229 -0.573865 1.89477
1339 0.342794 0.0242448 0.580065 0.614478 0.920819 0.517635 -0.209074 0.472705 -0.30338 1.67934
152 0.255752 0.315555 0.785957 0.792799 0.887311 0.521936 -0.272958 0.120403 -0.0101625 1.5077
90 0.349462 0.282923 0.476125 0.779089 1.13864 0.91138 -0.438113 0.26232 -0.271642 1.32509
2561 -0.54292 1.33352 1.03673 1.2318 1.52539 1.03146 -0.209605 0.514165 -0.639149 1.73416
3039 -0.674999 1.53773 1.12262 1.15824 1.60812 0.806096 -0.476169 0.245332 -0.820969 1.74703
3038 -0.60193 1.52415 1.1318 1.54463 1.31901 1.05383 -0.488451 0.412255 -0.581964 1.52964
912 -0.014049 0.633147 0.401939 0.874227 0.751798 0.387769 -0.390034 0.467207 -0.505302 1.72376
3436 -0.54241 1.39787 1.16546 1.30633 1.52148 0.921566 -0.419557 0.540549 -0.339678 1.80035
1825 -0.566179 1.38561 1.09404 1.40563 1.2764 0.722236 -0.61897 0.396243 -0.531554 1.84366
2588 -0.520563 1.19175 0.963773 1.20444 1.53324 0.896684 -0.442444 0.602795 -0.772622 1.97858
2428 -0.330593 1.71944 0.927138 1.22264 1.63569 0.585904 -0.501574 0.640771 -0.334699 1.75304
1797 -0.299981 1.48306 1.10897 1.44657 1.51064 0.872681 -0.295911 0.309059 -0.413026 1.69643
3074 -0.539895 1.35624 0.908257 1.3642 1.51453 0.902415 -0.509765 0.311719 -0.559695 1.91112
2760 -0.849447 1.10077 1.20165 1.30933 1.62293 0.962144 -0.428353 0.50786 -0.657989 1.71603
1235 -0.12438 0.572231 0.675492 1.15789 1.27135 0.443093 0.0223412 -0.0405414 -0.206218 1.25057
680 0.0128275 0.383648 0.613155 0.947744 0.838683 0.707293 0.201227 -0.087432 -0.0380659 1.8291
2230 -0.515376 1.36603 1.05907 1.41045 1.3799 1.02405 -0.656115 0.367899 -0.587578 1.70487
1395 -0.206049 0.358113 0.628859 0.819157 1.15778 0.211364 -0.763603 0.647222 0.221302 1.40786
1091 0.249693 0.275632 0.799919 0.762483 0.674421 0.547324 -0.544357 0.308794 0.141669 1.50178
537 0.0460744 0.591841 0.792385 1.02544 0.805461 0.342923 -0.734478 0.471604 -0.0686126 1.31413
118 0.511663 0.565984 0.58284 0.545649 0.901275 0.827417 -0.320076 0.436089 -0.0556694 1.5696
2344 -0.668338 1.33818 0.927952 1.45164 1.50298 1.06509 -0.453423 0.52789 -0.349802 1.71848
323 -0.252542 1.21047 1.05591 1.11744 1.31111 0.712951 -0.622853 0.101411 -0.506492 1.57328
2241 -0.273887 1.44771 1.07509 1.45469 1.41083 0.911057 -0.367995 0.27747 -0.5572 1.79704
1281 -0.254745 0.809385 0.831319 1.08746 1.08378 1.04658 -0.158397 0.161548 -0.570183 1.09017
150 0.156209 0.568772 0.626314 0.967979 1.02858 0.476716 -0.178883 0.251438 -0.211284 1.52788
2391 -0.698589 1.34771 1.03687 1.13893 1.49419 0.915646 -0.666212 0.498895 -0.793977 1.66602
989 0.247928 0.834247 0.77155 0.901538 1.22207 0.603291 -0.219535 0.15627 -0.452927 1.18713
3275 -0.63155 1.51212 1.09623 1.2368 1.41064 1.18028 -0.461221 0.505213 -0.563961 1.71558
3005 -0.469031 1.58152 1.175 1.28726 1.58079 0.838165 -0.514482 0.345753 -0.423988 1.44152
1482 0.152335 0.195617 0.448546 0.866536 1.23516 0.344517 -0.255017 0.000789844 0.0717776 1.55826
949 -0.0602099 0.828068 0.621019 1.04811 1.03184 0.629019 -0.234109 0.418518 -0.50595 1.14195
662 0.231135 0.524124 0.349755 0.866491 0.891459 0.599959 -0.475458 0.395565 -0.417593 1.5555
1044 0.187744 0.263493 0.375634 0.474581 0.553268 0.517787 -0.340723 -0.134024 -0.315631 2.13872
867 -0.040841 0.38592 0.959883 1.01183 0.880061 0.745067 -0.449487 0.288437 -0.339063 1.38024
3195 -0.656937 1.27054 1.02148 1.5247 1.46581 0.947627 -0.411485 0.5999 -0.611903 1.79848
234 0.508948 0.0791721 0.578505 1.00884 1.10793 0.659718 -0.39132 -0.180822 -0.113103 1.48923
646 -0.151696 0.628109 0.297335 1.00441 1.13152 0.558721 -0.527567 0.27515 -0.266164 1.36556
3425 -0.743459 1.56504 0.967318 1.33006 1.32451 1.08725 -0.300025 0.59545 -0.44367 1.69767
2983 -0.333572 1.50267 1.23879 1.61975 1.31463 0.730761 -0.327344 0.53903 -0.558375 1.77581
707 0.397174 0.465078 0.40503 0.69962 1.0101 0.575936 -0.193457 0.186973 -0.376314 1.67989
264 0.00552977 0.678963 0.624233 1.00325 1.07773 0.427459 -0.702031 0.385098 0.033446 1.40896
1645 -0.506357 1.48116 0.924837 1.4744 1.57716 0.950121 -0.235025 0.344907 -0.489298 1.66494
1464 -0.0578043 0.37038 1.01166 0.923511 0.878187 0.952857 -0.498374 0.417378 -0.185235 1.03476
836 -0.11198 0.852634 0.777562 0.930156 1.06455 0.71967 -0.389753 0.263176 0.123912 1.26049
382 0.0565506 0.271728 0.854849 1.09179 1.06669 0.595805 -0.608758 0.418699 0.0924717 1.08315
3191 -0.609014 1.43853 1.0013 1.28936 1.39693 1.01543 -0.263462 0.503673 -0.456207 1.79815
1077 0.0772037 0.275831 0.678292 0.918298 0.987506 0.507369 -0.272469 0.140949 -0.186623 1.47803
1199 -0.340932 1.03815 0.839891 1.15629 1.13169 0.828961 -0.31015 0.414043 -0.253652 1.4756
15 0.075196 0.278346 0.623677 0.782267 0.817868 0.494239 -0.478966 0.499596 -0.396415 1.62117
3325 -0.660575 1.62669 1.00731 1.3223 1.36852 0.903691 -0.565045 0.472323 -0.524136 1.64444
3499 -0.551925 1.36471 1.09066 1.27904 1.40334 0.712272 -0.393304 0.365123 -0.703762 1.91903
568 -0.175803 0.678641 0.782448 0.885607 0.869033 0.636346 -0.136922 0.218646 -0.326956 1.74734
2786 -0.762899 1.57708 0.948832 1.51784 1.36182 0.890263 -0.235203 0.436019 -0.467112 1.74001
467 -0.0325114 0.30614 0.361579 0.9021 0.708356 1.06903 -0.448975 0.228897 -0.238168 1.52018
2882 -0.663315 1.49431 1.2789 1.20381 1.236 0.69565 -0.303134 0.447469 -0.540196 2.01681
2703 -0.718765 1.40533 1.08799 1.69382 1.05545 0.749541 -0.585018 0.43492 -0.594953 1.78424
3096 -0.536824 1.65387 0.965852 1.14655 1.0253 0.864932 -0.43389 0.357603 -0.653532 2.0999
1225 0.0479803 0.258607 0.533515 0.717416 0.792808 0.512572 -0.275604 -0.0191257 -0.413182 1.60687
3177 -0.469334 1.37751 1.07996 1.33149 1.56599 0.878303 -0.456874 0.455724 -0.585545 1.68395
1305 0.198354 0.657491 0.750677 0.784069 1.05075 0.604045 -0.315872 0.0209674 -0.556012 1.45721
1177 -0.291427 0.687048 0.619541 0.839753 0.923404 0.524593 -0.2107 0.49541 -0.498056 1.74688
1469 0.142776 0.597409 0.386463 0.622681 0.90646 0.617811 -0.0726923 0.277962 0.173898 1.57286
2436 -0.519357 1.40153 1.06447 1.38919 1.25401 1.07195 -0.303834 0.396338 -0.429176 1.91202
2053 -0.313927 1.54825 1.3269 1.52619 1.26285 0.658927 -0.228785 0.249174 -0.523728 1.71795
214 0.376655 0.387333 0.626934 1.04358 0.855695 0.467043 -0.344305 0.0627699 -0.215597 1.50971
2890 -0.356191 1.64351 1.08575 1.19868 1.46872 0.925549 -0.386186 0.76263 -0.565951 1.70565
1238 -0.186033 0.703808 0.771642 0.858459 0.790294 0.330056 -0.29632 0.219275 -0.011352 1.53712
182 0.455997 0.556913 0.748343 0.906545 0.972993 0.464267 -0.245377 0.388979 0.0200089 1.34589
800 -0.000314102 0.337694 0.615258 1.08622 1.07281 0.919153 -0.609182 0.217368 -0.201923 1.14501
2502 -0.419918 1.52828 1.04696 1.19316 1.4222 0.798774 -0.598778 0.572139 -0.592935 1.80994
2918 -0.515201 1.22024 1.19917 1.25524 1.35778 0.72667 -0.523441 0.543727 -0.734135 1.92151
138 0.172594 0.743184 0.860934 1.02976 1.08873 0.392293 -0.263239 0.119195 -0.0430352 1.13032
1421 0.390966 0.515638 0.393158 0.766829 1.04045 0.23742 -0.443135 0.439111 -0.135381 1.50451
2550 -0.637986 1.53802 1.13463 1.32877 1.29057 1.06389 -0.508447 0.264007 -0.659458 1.72671
2937 -0.332927 1.79279 0.730464 1.43773 1.47504 0.883196 -0.460577 0.580128 -0.388156 1.65638
964 0.379251 0.256535 0.417606 0.843109 0.685911 0.924129 -0.295023 0.302259 -0.117029 1.71452
57 0.111182 -0.154444 0.412815 1.06372 0.921888 0.350615 -0.532655 -0.0311785 0.0148311 1.86386
2129 -0.482796 1.64763 1.25885 1.30656 1.4735 0.771526 -0.441406 0.283895 -0.635483 1.6325
361 -0.307987 1.16992 0.881309 1.17114 1.14539 0.684652 -0.581334 0.395319 -0.575543 1.59215
2314 -0.509275 1.42289 0.947753 1.3732 1.72058 0.90731 -0.288895 0.608914 -0.54511 1.7152
1920 -0.57195 1.36016 1.07722 1.50127 1.26274 1.08539 -0.467092 0.771293 -0.76888 1.55276
979 0.508788 -0.100266 0.239852 0.686255 0.789705 0.771538 -0.452501 0.0290154 -0.111294 1.8137
2657 -0.620244 1.47312 0.908371 1.51167 1.274 0.759932 -0.519933 0.605163 -0.588541 1.83694
2584 -0.582608 1.38727 1.08065 1.35994 1.41242 0.860083 -0.462248 0.720438 -0.630864 1.67571
1909 -0.621575 1.40223 1.0129 1.45374 1.40662 0.731396 -0.629563 0.390398 -0.56128 1.75324
783 0.089328 0.320458 0.402555 0.696788 1.06831 0.794963 -0.0840918 0.44202 -0.236278 1.70174
3190 -0.542027 1.34218 1.07689 1.52413 1.5859 0.684222 -0.49244 0.669854 -0.543015 1.63464
3232 -0.519665 1.25467 1.25398 1.45142 1.66039 1.06791 -0.330746 0.398916 -0.588783 1.51391
704 -0.357554 0.892735 0.637483 0.953021 1.24309 0.410583 -0.532563 0.25139 -0.497896 1.511
1799 -0.651136 1.38973 1.18082 1.49445 1.68305 0.960798 -0.343907 0.483422 -0.413167 1.73706
566 0.234852 0.616871 0.848051 1.16171 0.776187 0.389931 -0.214688 0.15348 0.307491 1.30887
2998 -0.733712 1.59119 1.18379 1.41161 1.15916 0.653926 -0.475859 0.557544 -0.663885 1.74181
2934 -0.559566 1.18649 1.15029 1.38908 1.70965 0.771146 -0.594393 0.458843 -0.558271 1.67259
580 -0.138162 0.609151 0.51307 0.873081 0.937888 0.750705 -0.208365 0.198037 -0.0637316 1.34949
1103 0.120596 0.378065 0.62345 0.828505 0.903923 0.46445 -0.212442 0.43213 -0.502236 1.56195
3089 -0.502724 1.40514 0.923837 1.34115 1.52163 0.970126 -0.470647 0.5524 -0.694995 1.82003
3574 -0.468594 1.31526 1.06773 1.26238 1.42039 1.04872 -0.77227 0.487323 -0.450339 1.92153
47 0.0557665 0.538282 0.399522 1.06502 0.94132 0.466736 -0.155754 0.0700867 -0.284481 1.67608
2929 -0.771308 1.37279 1.08089 1.33393 1.39874 1.09102 -0.02696 0.41489 -0.720982 1.66662
3361 -0.46971 1.59682 1.0369 1.211 1.60193 0.941211 -0.454758 0.790928 -0.624451 1.67932
1400 -0.523035 1.30345 0.712047 1.28527 1.53335 0.856838 -0.29798 0.427689 -0.614182 1.51108
2207 -0.481523 1.3666 1.20261 1.41615 1.84103 0.995923 -0.475584 0.43693 -0.523572 1.57245
3033 -0.756873 1.59936 1.18091 1.35782 1.3958 0.850596 -0.351803 0.174658 -0.705325 1.67301
1306 -0.299518 0.369085 0.676864 1.08213 1.01805 0.603293 -0.0717573 0.0564764 -0.286762 1.28229
2440 -0.403061 1.59248 1.14502 1.47869 1.4979 0.782658 -0.699653 0.487982 -0.416515 1.45959
2249 -0.420202 1.52016 1.14013 1.41915 1.4679 0.941601 -0.617315 0.439962 -0.766816 1.53173
2278 -0.306485 1.43847 1.10465 1.1415 1.53552 0.907841 -0.401694 0.455069 -0.801236 1.8432
3372 -0.700403 1.62364 1.32294 1.41545 1.58094 0.854745 -0.506983 0.354975 -0.430748 1.60382
20 -0.403203 0.490365 0.995183 1.02452 0.938907 0.565033 -0.230813 0.42653 -0.376681 1.68701
1750 -0.465438 1.42963 1.12317 1.33269 1.69519 1.0456 -0.597696 0.575779 -0.629011 1.91703
438 -0.0441038 0.489476 0.866341 0.485982 0.989376 0.860912 -0.0395408 0.263656 -0.00865627 1.49699
2215 -0.397247 1.5017 1.24192 1.31389 1.57924 0.77427 -0.210894 0.389736 -0.660307 1.72202
2218 -0.626277 1.60481 1.07773 1.30634 1.32953 0.91647 -0.477144 0.533654 -0.594195 1.7693
1243 0.249397 0.206672 0.503118 0.65281 0.947531 0.612358 -0.403807 0.144432 0.103044 1.66683
1608 -0.628769 1.4118 0.979975 1.42321 1.44686 1.15314 -0.577267 0.19977 -0.464771 1.58985
2587 -0.611643 1.40896 1.06106 1.26908 1.46094 0.955422 -0.398033 0.316853 -0.596339 1.8355
1818 -0.587633 1.67692 0.840292 1.61885 1.45649 0.820908 -0.572262 0.487827 -0.502647 1.71518
2765 -0.433578 1.39771 1.10596 1.19544 1.24136 1.01208 -0.380828 0.495074 -0.522141 1.9539
1296 0.267328 0.513528 0.737822 0.943316 0.518732 0.7454 -0.211046 0.129691 -0.109835 1.49687
3149 -0.753039 1.38462 0.933886 1.2502 1.3065 0.96338 -0.641079 0.419518 -0.549571 1.9181
1470 -0.0362582 0.312202 0.903835 0.866428 1.14515 0.239387 -0.310608 0.0223635 -0.510728 1.25815
2198 -0.361531 1.65527 1.00927 1.38222 1.22421 0.822649 -0.468226 0.363394 -0.909641 1.59143
1069 0.120905 0.509059 0.696203 0.724907 1.01823 0.585078 -0.687828 0.138145 -0.368537 1.26452
2012 -0.473725 1.26145 1.21675 1.4015 1.47791 0.989913 -0.467884 0.0820935 -0.426289 1.63725
910 0.394851 -0.028185 0.192951 0.896634 1.10949 0.698357 -0.470676 0.26929 -0.26869 1.50721
578 -0.571913 1.34012 0.895833 1.26922 1.22408 0.647656 -0.529495 0.447718 -0.503659 1.62246
1651 -0.564903 1.60653 1.0778 1.36923 1.46501 0.998293 -0.457917 0.342242 -0.688349 1.79217
2109 -0.607254 1.58321 0.97585 1.24666 1.32761 0.93523 -0.446666 0.205761 -0.423587 1.96631
1252 -0.0958067 0.539228 0.560857 1.25809 0.846413 0.490575 -0.344625 0.388085 0.0927604 1.3497
1383 -0.125037 0.73346 0.562167 0.946231 1.22638 0.910303 -0.0100729 0.202141 -0.406576 1.52348
587 -0.464202 0.872426 0.827855 1.30813 1.15775 0.64134 -0.321253 0.477494 -0.601462 1.51995
1751 0.0320487 0.976147 0.941054 1.55175 1.34821 0.647922 -0.443792 0.602967 -0.0310478 2.03686
641 -0.0874965 0.561322 0.745137 0.792337 1.25538 1.02845 -0.109476 0.0429846 -0.0715071 1.05218
2450 -0.498771 1.6937 0.904917 1.49757 1.63034 0.571558 -0.517789 0.246854 -0.54687 1.55016
78 -0.441199 1.15917 1.03355 1.14366 1.52409 0.736888 -0.467659 0.238047 -0.609388 1.5419
1869 -0.64688 1.35526 0.922203 1.48184 1.67531 0.926674 -0.41812 0.153988 -0.810485 1.76371
924 -0.713599 1.29178 0.774566 1.16971 1.37339 0.816169 -0.301412 0.427348 -0.51005 1.75055
2351 -0.691678 1.40932 1.14237 1.37666 1.51173 0.83433 -0.353788 0.275933 -0.664893 1.93209
1051 -0.314739 0.798369 0.39109 1.00135 1.22292 0.526931 -0.361408 0.495009 -0.312277 1.22536
3135 -0.729252 1.35934 0.913521 1.3346 1.75233 0.810494 -0.353932 0.503741 -0.665029 1.70754
3051 -0.489419 1.56737 1.21722 1.35472 1.52774 0.819067 -0.485884 0.443956 -0.439367 1.66045
3573 -0.390828 1.50755 0.960004 1.28712 1.59306 0.983891 -0.233327 0.627338 -0.624057 1.7116
875 0.546397 0.314553 0.540489 0.866213 0.983863 0.719832 -0.202167 0.381476 0.116487 1.4225
2415 -0.7746 1.57488 1.23093 1.40636 1.5277 0.900484 -0.394629 0.418886 -0.385713 1.77918
133 -0.0914369 0.542474 0.858262 0.497827 1.53335 0.656818 -0.194533 -0.0114317 -0.164738 1.49847
2127 -0.454494 1.38802 0.928225 1.41392 1.45011 1.06339 -0.434125 0.71908 -0.4917 1.76736
3061 -0.483501 1.3313 1.08575 1.59004 1.56395 0.908994 -0.264246 0.466359 -0.489135 1.64174
2720 -0.655401 1.50303 1.15121 1.30553 1.39518 1.00868 -0.314753 0.356722 -0.301843 1.85578
2356 -0.491725 1.3625 1.1789 1.48528 1.56657 0.868467 -0.570502 0.511216 -0.478718 1.57764
3402 -0.397488 1.47112 0.994187 1.28839 1.46568 0.627416 -0.203806 0.252034 -0.483165 1.99265
324 0.292071 0.465171 0.686635 0.752009 0.72662 0.887117 -0.257792 0.175093 -0.330813 1.41515
3196 -0.761327 1.56481 0.925365 1.19094 1.41933 0.939722 -0.544218 0.429252 -0.516982 1.79645
2451 -0.609412 1.4853 0.822944 1.30126 1.72165 0.67166 -0.442437 0.52091 -0.639867 1.85863
2276 -0.498488 1.40415 1.04701 1.47163 1.56989 0.694039 -0.343172 0.539793 -0.493824 1.65313
1273 0.267924 0.359091 0.519012 0.917798 1.19869 0.379258 -0.417876 0.500678 -0.312021 1.33553
314 0.023537 -0.0471717 0.70319 0.985149 0.727664 0.492062 -0.175044 0.29213 -0.0073827 1.71041
724 -0.0890036 0.318467 0.618629 0.8433 0.569403 0.596291 -0.341236 0.224553 0.150541 1.71127
3400 -0.68023 1.4835 0.983258 1.41069 1.56791 0.839013 -0.309605 0.384851 -0.481989 1.59428
2039 -0.871978 1.42695 1.07989 1.31943 1.38437 0.769637 -0.524045 0.441757 -0.593541 1.8467
1178 -0.0133568 0.526105 0.529531 0.736504 0.941311 0.546837 -0.436335 0.0482263 -0.305306 1.58508
623 0.106267 0.0509982 0.619543 0.854805 1.08314 0.438826 -0.767348 0.334303 -0.319176 1.50411
625 0.193103 0.705058 0.552395 0.867143 1.07836 0.558001 -0.295154 0.502429 0.024385 1.26906
2244 -0.584885 1.40423 0.978116 1.33579 1.35523 0.902924 -0.609433 0.323715 -0.668272 1.7644
1913 -0.470418 1.40359 0.939846 1.18492 1.48327 1.05023 -0.505403 0.606534 -0.778624 1.73418
814 0.282839 0.413276 0.698474 0.81505 1.1873 0.57702 -0.217141 0.187801 -0.284929 1.20582
1204 0.752126 0.535397 0.577138 0.853201 0.952864 1.03163 -0.111268 0.181484 0.195142 1.2192
2733 -0.398875 1.69974 1.07892 1.41126 1.39516 0.768694 -0.471669 0.343275 -0.568639 1.77152
183 0.128529 0.237049 0.758551 1.18249 1.08833 0.781391 -0.218347 0.241542 -0.16339 1.15346
2497 -0.490608 1.67611 1.27694 1.46301 1.25723 0.810162 -0.287572 0.453798 -0.654984 1.56392
622 0.164785 0.562218 0.472371 0.644356 1.1005 0.371636 -0.41793 0.264539 0.292737 1.33438
1028 0.139043 0.437552 0.419233 0.804166 0.894768 0.733955 -0.338549 0.236921 -0.401776 1.65661
1984 -0.685913 1.46105 1.22557 1.35466 1.62594 1.08307 -0.509659 0.412808 -0.631731 1.64882
2150 -0.386168 1.44807 0.861372 1.39601 1.46955 0.866254 -0.431893 0.5696 -0.592379 1.83142
1065 -0.150804 1.2021 0.643856 1.16935 1.14596 0.795854 -0.387263 0.416827 -0.330537 1.49549
2272 -0.788805 1.46193 1.31893 1.53009 1.49912 1.0834 -0.363718 0.373963 -0.393348 1.5615
267 0.374316 0.0424493 0.648364 1.04555 1.02142 0.603731 -0.200377 0.37538 -0.161756 1.57003
1307 -0.0779771 0.454514 0.668317 0.954607 1.12583 0.540443 -0.360062 0.275625 -0.16612 1.41027
2078 -0.330453 1.39088 1.08228 1.27748 1.84853 0.659727 -0.547207 0.309153 -0.660192 1.63771
2079 -0.695195 1.39995 0.990926 1.27411 1.7018 0.880409 -0.449253 0.526335 -0.449403 1.68643
344 -0.0417309 0.313702 0.571482 0.937856 0.925655 0.617482 -0.289142 0.40665 -0.0227539 1.56969
2847 -0.674396 1.55536 0.992548 1.30237 1.44709 1.03207 -0.472582 0.390635 -0.339542 1.72978
1543 -0.488137 1.54815 0.967427 1.35104 1.65431 0.882722 -0.529468 0.260066 -0.603776 1.67226
768 0.278489 0.437026 0.494359 0.611177 0.991525 0.566902 -0.411936 0.145317 -0.590371 1.71962
2111 -0.342826 1.49172 1.19793 1.32724 1.39015 1.00263 -0.566798 0.463748 -0.485725 1.75352
2124 -0.448055 1.35015 1.02048 1.563 1.57994 0.712741 -0.293964 0.262718 -0.439656 1.68232
866 0.492223 0.361892 0.663725 0.725993 0.842372 0.640294 -0.217262 0.162519 -0.0599368 1.54571
3276 -0.696335 1.40743 1.13967 1.25406 1.45148 1.03639 -0.564651 0.484965 -0.447015 1.77016
2424 -0.382808 1.43781 1.13877 1.48858 1.53521 0.794358 -0.606349 0.570768 -0.522669 1.67695
3501 -0.432586 1.44759 1.21173 1.4591 1.33327 0.93688 -0.541915 0.472345 -0.246363 1.72878
1545 -0.484457 1.62344 1.00355 1.31059 1.48692 0.701462 -0.44108 0.510151 -0.609487 1.66956
2572 -0.591455 1.49819 0.950204 1.35404 1.39881 0.885877 -0.412488 0.654026 -0.531507 1.77458
709 0.0342927 0.177681 0.0568584 0.643591 1.07182 0.762627 -1.01354 0.141254 -0.139163 1.58867
1471 0.402978 0.159618 0.270276 0.625933 1.05176 0.255138 -0.374463 0.682203 0.115206 1.6517
904 -0.168183 0.343229 0.68991 1.171 1.38119 0.427427 -0.754328 0.455716 0.053241 1.06081
916 -0.802486 1.24899 0.832553 1.40695 1.24504 0.894797 -0.42679 0.231208 -0.570876 1.66665
3443 -0.695918 1.72507 1.12028 1.47966 1.28549 0.784829 -0.461986 0.224541 -0.279215 1.63132
1777 -0.623968 1.31039 0.811963 1.43006 1.6163 0.941863 -0.454087 0.57362 -0.524737 1.71028
2378 -0.524338 1.60014 1.0993 1.37984 1.40479 1.05058 -0.482304 0.248131 -0.512399 1.86484
829 0.0273365 0.55679 0.646654 1.26227 0.832984 0.745895 -0.155624 0.0461342 -0.330785 1.60828
1631 -0.436529 1.65147 0.946782 1.39303 1.5163 0.861035 -0.361942 0.417617 -0.781234 1.78552
1598 -0.620571 1.51344 1.06218 1.50747 1.35926 0.780141 -0.412013 0.178461 -0.555841 1.72942
1198 -0.0344667 0.722166 0.696014 0.843968 1.32271 0.55707 -0.42861 0.409216 -0.017365 1.02204
239 0.191464 0.460964 0.611405 0.511053 0.914511 0.326994 -0.141174 0.16924 0.355362 1.67006
2163 -0.694508 1.40051 0.991516 1.61358 1.21699 1.16062 -0.490728 0.422143 -0.3862 1.59764
1587 -0.362067 1.31322 1.23567 1.29908 1.54605 0.884763 -0.249679 0.502017 -0.286845 1.67456
1532 -0.620077 1.56071 0.962094 1.32808 1.34178 0.996991 -0.528476 0.409501 -0.796485 1.81678
3369 -0.440159 1.44206 1.00293 1.23949 1.76139 0.603424 -0.407743 0.482319 -0.307014 1.75234
14 0.191345 0.187557 0.600074 0.384465 1.68504 0.658816 -0.470446 -0.00968704 -0.420313 1.12744
2069 -0.790299 1.45583 1.09108 1.29539 1.43119 1.08154 -0.283965 0.117754 -0.575885 1.6466
128 -0.242173 0.67177 0.60325 1.00318 1.11795 0.722533 -0.411478 0.0937874 -0.303183 1.26745
938 -0.319298 1.06968 0.72961 1.20746 1.00739 1.17487 -0.224689 0.365148 -0.402642 1.48999
2752 -0.750866 1.63211 1.02529 1.37509 1.54564 0.758604 -0.366011 0.390265 -0.448232 1.74641
1465 0.221482 0.67801 0.753888 0.888085 1.04354 0.678674 -0.541504 0.280524 -0.322537 1.14095
911 -0.128939 0.547871 0.628218 1.01054 1.13879 0.69829 -0.544064 0.367187 -0.0832942 1.42609
1181 -0.413203 0.0110063 0.59737 0.98334 1.07803 0.134042 -1.06887 0.452135 0.161174 1.31678
1451 0.134837 0.713099 0.874402 0.776787 1.11729 0.349886 -0.548156 0.392759 -0.186877 1.23757
2991 -0.616582 1.5291 1.00832 1.35763 1.35703 0.972173 -0.388699 0.405877 -0.65499 1.67222
2487 -0.385241 1.47055 0.923956 1.54107 1.48074 1.18563 -0.230145 0.247781 -0.519334 1.654
1640 -0.602484 1.46151 1.13476 1.45768 1.46873 0.793527 -0.41031 0.366348 -0.608062 1.70301
980 0.00224553 0.373748 0.586485 0.924623 0.683507 0.5 -0.616316 0.0238953 -0.455516 1.50851
3530 -0.461551 1.39581 0.967727 1.35356 1.5912 1.01786 -0.56068 0.29112 -0.337358 1.65439
1290 0.0605029 0.625319 0.433996 0.827673 1.00161 0.674524 -0.29887 0.269641 -0.208062 1.35146
1441 -0.00538843 0.461689 0.681177 0.880471 1.24635 0.80296 -0.2948 0.336672 -0.45473 1.57089
227 -0.189436 0.612004 0.601497 0.972705 0.969389 0.768046 -0.472341 0.410762 0.0157347 1.28196
2508 -0.5108 1.64662 0.757914 1.36904 1.48071 1.02095 -0.539353 0.492559 -0.583401 1.69239
2577 -0.248323 1.48411 0.967338 1.33223 1.4353 1.07858 -0.55713 0.252886 -0.543118 1.69329
486 0.287664 0.561677 0.680289 1.04148 0.913842 0.506042 -0.421098 0.356312 -0.17755 1.29194
2898 -0.509354 1.48201 1.07523 1.44971 1.36432 0.980719 -0.459987 0.480577 -0.636451 1.74075
1588 -0.35463 1.61231 1.33458 1.25758 1.37611 1.13093 -0.497511 0.448966 -0.411945 1.65014
115 0.224215 0.047076 0.755386 1.03457 0.812292 0.719429 -0.158036 -0.0136671 -0.325763 1.44927
2261 -0.313316 1.68868 1.23332 1.41533 1.38918 0.965746 -0.479177 0.32037 -0.411131 1.64741
1021 0.247369 -0.0927156 0.274582 0.961868 1.18971 0.714728 -0.326935 -0.0517755 -0.0518988 1.57622
1143 0.393289 0.429929 0.563397 0.95282 1.32585 0.545548 -0.109068 0.185231 -0.234666 1.31525
210 0.401402 0.0463277 0.652927 0.716375 0.62672 0.571825 -0.159899 0.368861 -0.258822 1.8857
1320 0.34344 0.0310743 0.472933 0.352957 0.600637 0.481383 -0.0932182 -0.166769 -0.252829 2.24277
3301 -0.328155 1.72797 1.015 1.28153 1.10607 1.14318 -0.251867 0.331456 -0.673564 1.77892
3305 -0.228919 1.41128 0.841605 1.41364 1.58912 0.803628 -0.770067 0.551342 -0.546928 1.72274
2791 -0.736799 1.41774 1.04064 1.43716 1.53123 0.833407 -0.298393 0.300381 -0.521024 1.71446
491 0.189893 0.1272 0.264851 0.894919 1.02837 0.418674 -0.613455 0.21767 -0.392055 1.74584
640 -0.151921 0.799076 0.720253 1.15177 0.868147 0.623956 -0.219937 0.241846 -0.426606 1.71071
1023 0.138959 0.0857049 0.531861 0.467887 0.794652 0.829278 -0.155769 0.318335 -0.126166 1.7198
2986 -0.659371 1.53977 0.939259 1.26499 1.50936 0.854342 -0.482745 0.454499 -0.327795 1.88313
971 0.0521212 0.509269 0.725531 1.08168 0.939871 0.968719 -0.0709118 0.315938 -0.317509 1.18014
1217 0.152824 0.103039 0.661623 0.635196 1.19049 0.653444 -0.178855 0.475287 -0.0372694 1.50227
1038 0.169206 0.305609 0.721355 0.743756 0.868929 0.832618 -0.122345 0.151335 0.110112 1.58972
257 -0.0176509 0.506124 0.677271 0.791974 1.09373 0.695882 -0.12941 0.424872 -0.350297 1.66526
170 -0.685097 1.19899 1.01422 1.31222 1.48612 0.780731 -0.282393 0.434386 -0.532446 1.53595
1826 -0.611789 1.56755 0.952904 1.55623 1.63494 0.78988 -0.59868 0.439187 -0.51623 1.83804
456 0.0358553 0.749682 0.897636 0.864658 1.04437 0.670322 -0.354933 0.446635 -0.263363 1.55764
2655 -0.675285 1.4372 0.785503 1.27856 1.50042 0.941826 -0.573423 0.194989 -0.532239 1.90413
2449 -0.57462 1.55228 0.907118 1.39554 1.46889 0.725504 -0.423966 0.459517 -0.6061 1.93765
3079 -0.467894 1.52346 1.10363 1.22424 1.57599 1.12227 -0.457514 0.377622 -0.384091 1.57432
602 0.142809 0.371184 0.936954 1.0121 1.40091 0.103125 -1.15891 0.182861 0.0405418 1.07399
2656 -0.590967 1.49441 1.0254 1.34942 1.34274 1.2368 -0.292347 0.449773 -0.419535 1.76371
1794 -0.520176 1.56859 1.13696 1.45858 1.58134 1.00555 -0.346242 0.677434 -0.509218 1.76622
2182 -0.596533 1.29573 0.865301 1.26588 1.69078 1.10563 -0.0432111 0.237263 -0.476364 1.80339
1327 0.329871 0.354997 0.840204 0.618998 0.584549 0.593437 -0.185039 0.344802 -0.372913 1.63712
3188 -0.778544 1.44236 1.05944 1.6273 1.35654 0.646167 -0.262894 0.544218 -0.596428 1.7112
1669 -0.378467 1.4387 1.17352 1.2899 1.57504 1.00856 -0.436022 0.461821 -0.744634 1.60361
2927 -0.619615 1.45323 1.0066 1.45004 1.71279 0.929525 -0.568144 0.492557 -0.358486 1.50516
278 -0.0752391 0.89532 0.707482 0.932454 1.2498 0.745998 -0.538764 0.378687 -0.308217 1.65365
1940 -0.633717 1.73115 0.896235 1.17364 1.40291 0.700368 -0.455703 0.368863 -0.405309 1.92558
3062 -0.535358 1.57938 1.13246 1.46327 1.32958 1.22852 -0.343423 0.28639 -0.432088 1.57874
3449 -0.683337 1.27414 1.23538 1.30094 1.50906 0.808888 -0.414476 0.395713 -0.635022 1.70181
346 0.136792 0.570724 0.661179 1.14131 0.818547 0.797458 -0.344923 0.102671 -0.160303 1.34382
1590 -0.78742 1.481 1.0976 1.31498 1.57051 0.77684 -0.426635 0.352501 -0.0722477 1.77876
534 0.246696 0.201043 0.816674 0.722296 0.80132 0.883499 -0.204715 0.00431074 -0.421485 1.44516
1059 0.00928004 0.906285 0.613817 0.681262 1.1822 0.825036 -0.518337 -0.0265403 -0.110532 1.60532
2303 -0.548654 1.69502 0.984577 1.32455 1.41445 0.926724 -0.567453 0.392047 -0.630553 1.60517
3421 -0.574769 1.18194 1.0709 1.29146 1.58407 0.761149 -0.759305 0.156622 -0.514691 1.81886
3514 -0.466834 1.29028 0.974911 1.45921 1.45596 0.981511 -0.395768 0.261488 -0.63716 1.7056
339 0.427248 0.349132 0.568223 0.688221 1.40398 0.547526 -0.437848 0.157746 0.102274 1.33475
3534 -0.607649 1.54563 0.798968 1.44395 1.50509 0.87218 -0.301393 0.424358 -0.389906 1.79183
360 -0.105432 0.273374 0.738894 0.634145 0.901923 0.595173 -0.793802 -0.0551771 -0.246984 1.42442
160 0.0172513 0.716698 0.589109 0.686467 1.26136 0.417112 -0.354978 -0.0233821 0.224879 1.36719
2313 -0.499834 1.65452 1.17523 1.55287 1.50273 0.939507 -0.384562 0.665952 -0.419581 1.78986
1730 -0.491193 1.4408 0.948172 1.30933 1.59931 0.865804 -0.416225 0.628142 -0.485664 1.77569
1052 -0.0352259 0.487316 0.476893 0.999582 0.914173 0.768918 -0.319461 0.210996 -0.119051 1.36738
2721 -0.492206 1.38081 1.02669 1.31117 1.41874 1.01019 -0.159972 0.203679 -0.224455 2.03819
3124 -0.33128 1.60184 0.876819 1.42352 1.4164 1.19328 -0.564368 0.365458 -0.784867 1.50122
2744 -0.609911 1.6786 1.07944 1.32578 1.41365 1.00328 -0.681679 0.659742 -0.545873 1.60821
3230 -0.640794 1.54924 1.15313 1.31428 1.33796 0.809516 -0.44162 0.302125 -0.449412 1.76514
3296 -0.460838 1.53119 1.11191 1.31688 1.54215 1.25031 -0.561151 0.451229 -0.395557 1.6572
2063 -0.46704 1.29741 1.0217 1.49362 1.41899 1.10097 -0.41848 0.362771 -0.647124 1.76831
3159 -0.46473 1.5147 0.988681 1.41904 1.35812 0.883991 -0.36427 0.416435 -0.383175 1.77009
1732 -0.489351 1.4226 0.939898 1.29081 1.61028 0.838686 -0.526765 0.630089 -0.492002 1.75617
3145 -0.814451 1.40706 1.2077 1.35536 1.43916 1.02292 -0.286769 0.2051 -0.524875 1.69776
1123 0.209704 0.0298608 0.356072 0.935521 0.993539 0.412203 -0.354672 0.000329672 -0.138725 1.80155
2396 -0.594055 1.53215 1.41299 1.20621 1.40455 1.07155 -0.580251 0.377872 -0.534569 1.63399
439 0.0570729 0.59598 0.321315 0.887584 0.859491 0.434003 -0.601683 0.295511 -0.185146 1.55934
2254 -0.64463 1.58546 1.01062 1.40297 1.66665 0.766912 -0.668173 0.3109 -0.619511 1.69729
2037 -0.425573 1.36585 1.16266 1.41991 1.46506 0.849038 -0.513053 0.380778 -0.567139 1.84249
2337 -0.495377 1.48091 1.16376 1.16779 1.80436 0.886119 -0.656496 0.561854 -0.60998 1.51954
1418 -0.792325 1.51595 1.03347 1.14205 1.40662 0.699773 -0.386271 0.412961 -0.494705 1.54545
2552 -0.523752 1.56424 0.947828 1.3102 1.56346 0.660521 -0.580681 0.274494 -0.511901 1.89175
122 0.187902 0.472142 0.483656 0.901739 0.978851 0.800703 -0.302459 0.211751 -0.097551 1.33712
102 0.0433105 0.457219 0.506512 0.889258 1.06154 0.398288 -0.324887 0.407616 -0.214268 1.37211
3194 -0.459889 1.54341 0.758635 1.31233 1.65394 1.07688 -0.631401 0.451065 -0.609373 1.61704
1129 -0.0291751 0.644717 0.726589 0.874597 0.991284 0.476011 -0.215228 0.375584 -0.128091 1.36772
993 0.316802 0.293237 0.271269 0.654406 1.0399 0.705315 -0.352033 0.0629754 0.188213 1.69396
2591 -0.438599 1.45184 0.971012 1.61668 1.44178 0.930861 -0.34907 0.345925 -0.433065 1.80214
3481 -0.798512 1.2852 1.16792 1.08911 1.62327 0.825739 -0.317034 0.33435 -0.492256 1.90925
2632 -0.486541 1.52974 0.923266 1.52849 1.36818 1.05913 -0.572338 0.455062 -0.611185 1.73588
570 0.0116139 0.503893 0.63356 0.849084 1.24539 0.635091 -0.457501 0.22755 -0.0170202 1.2707
366 0.345269 0.232711 0.95739 0.675823 0.873299 0.0692355 -0.65428 0.11995 -0.0638534 1.48556
2434 -0.445457 1.76684 1.16157 1.44341 1.29867 0.868683 -0.406736 0.464687 -0.585246 1.67583
1468 -0.379059 0.955022 0.657705 0.966607 1.35301 0.925351 -0.411371 0.137289 -0.344568 1.53847
1642 -0.535369 1.41532 1.04648 1.42049 1.50018 0.753592 -0.422095 0.458117 -0.711463 1.92697
1710 -0.365564 1.61102 1.15563 1.33698 1.25025 0.918128 -0.359373 0.114613 -0.281937 1.79871
1841 -0.319561 1.49585 1.12282 1.44024 1.41267 0.938911 -0.513184 0.419828 -0.482885 1.72457
3373 -0.618134 1.54167 1.18632 1.47154 1.52233 0.977521 -0.263675 0.209356 -0.451097 1.85603
3103 -0.342786 1.52 0.989345 1.55886 1.57401 0.840705 -0.48921 0.23034 -0.729967 1.60541
2742 -0.644018 1.33783 1.20596 1.451 1.47583 0.847791 -0.421579 0.525745 -0.573978 1.75261
868 0.329438 0.399876 0.495691 0.928765 0.987793 0.606202 -0.0440671 0.264149 0.169702 1.46268
193 0.228507 0.138859 0.797393 0.727704 0.888664 0.893623 -0.253708 0.232141 -0.159989 1.44587
155 0.0603276 0.306421 0.437858 1.12847 1.09792 0.70003 -0.614174 0.310462 0.167619 1.24148
3244 -0.586857 1.38759 0.916208 1.20531 1.58555 1.1897 -0.359208 0.532561 -0.51075 1.77474
1444 -0.00458885 0.434865 0.555141 0.706559 1.08595 0.720947 -0.397382 0.0328843 -0.405071 1.46621
1759 -0.0922638 0.812093 0.80419 1.46506 1.42338 0.731365 -0.557212 0.54504 -0.263697 1.84473
110 0.213402 0.287309 0.362378 1.12458 1.09118 0.914436 -0.342798 0.142507 -0.289749 1.3943
2007 -0.633438 1.48054 1.15097 1.58294 1.70515 0.963898 -0.293123 0.402768 -0.424751 1.46455
747 0.144043 0.709981 0.832739 0.713689 1.18275 0.669941 -0.560284 0.41776 -0.247712 0.917158
2119 -0.654035 1.76073 0.957418 1.32621 1.72295 0.557079 -0.231908 0.353191 -0.567824 1.64594
2570 -0.44396 1.64007 1.08658 1.25448 1.30036 0.814746 -0.489346 0.520616 -0.637716 1.87273
1530 -0.547868 1.57227 0.964836 1.31246 1.6928 0.794292 -0.241793 0.48527 -0.422203 1.63109
2097 -0.527135 1.61506 0.959531 1.58947 1.50332 0.94892 -0.375811 0.509838 -0.600452 1.79284
3503 -0.583132 1.55688 1.32679 1.08329 1.39127 0.922051 -0.516381 0.256872 -0.684607 1.64302
2679 -0.855324 1.43085 1.00811 1.53917 1.2392 0.947711 -0.634428 0.553017 -0.415743 1.67532
892 -0.437386 1.02983 0.713955 1.24662 1.04764 0.873614 -0.492107 0.150054 -0.370621 1.62615
1864 -0.403312 1.58443 1.00479 1.51582 1.59775 1.15377 -0.489904 0.369214 -0.335157 1.50385
2371 -0.323495 1.24603 1.01149 1.61476 1.29004 0.620258 -0.688088 0.289838 -0.743812 1.90013
308 -0.20082 1.12298 0.753676 1.20703 0.971165 1.08421 -0.339165 0.22497 -0.459695 1.5441
1607 -0.447569 1.53751 0.882778 1.41702 1.38557 0.881394 -0.077565 0.609918 -0.496506 1.78829
833 0.366201 0.0275946 0.266331 0.491051 1.09031 0.657392 -0.389832 0.0370133 -0.0301817 1.8077
528 0.0346087 0.394899 0.725473 0.852451 0.906666 0.647591 -0.134643 0.337451 -0.168892 1.50836
1147 -0.517351 1.31603 0.966611 1.17083 1.35652 0.766445 -0.594397 0.461717 -0.310409 1.56191
1978 -0.383127 1.63127 0.981148 1.36217 1.56115 0.834673 -0.401639 0.387089 -0.650294 1.65002
362 0.00163993 0.530131 0.578551 0.989308 1.07732 0.799492 -0.181118 -0.0726224 -0.193526 1.34727
2048 -0.696348 1.48829 0.954804 1.5226 1.58277 0.7896 -0.369121 0.43081 -0.416673 1.7704
1463 0.403458 0.222215 0.722664 0.882084 1.06078 0.699649 -0.336772 0.318129 -0.495093 1.50671
397 -0.140226 0.39046 0.576743 0.866559 0.977879 0.484984 -0.518415 0.52596 -0.162096 1.53989
2554 -0.542639 1.60197 0.892356 1.43315 1.41491 0.855323 -0.54988 0.30862 -0.605741 1.82146
1942 -0.614457 1.51465 1.22851 1.30758 1.48854 0.909026 -0.358544 0.414965 -0.673633 1.93421
301 0.590829 0.227095 0.684637 0.834939 0.685721 0.791273 -0.550826 0.278345 -0.348218 1.40619
2800 -0.571764 1.66594 1.02226 1.48356 1.44968 0.994051 -0.345835 0.188451 -0.407369 1.66726
3350 -0.564836 1.53932 1.08729 1.48118 1.46806 0.750938 -0.342754 0.35049 -0.437576 1.84667
510 -0.659525 1.30619 0.904184 1.3387 1.33312 0.799677 -0.221687 0.220058 -0.528942 1.69382
1092 0.273168 0.363724 0.674517 0.722276 0.880281 0.989592 -0.40241 0.434416 -0.13288 1.22267
1185 0.107679 0.882856 0.693095 1.02134 0.990132 0.916409 -0.211048 0.24193 -0.421777 1.58242
2512 -0.52774 1.36383 1.10177 1.33321 1.57204 0.912283 -0.315161 0.19013 -0.502254 1.77803
1251 0.296795 0.448452 0.701184 0.754354 1.25071 0.666246 -0.553112 0.137631 -0.292024 1.22454
3394 -0.332207 1.47947 1.14286 1.13868 1.49096 0.768243 -0.328855 0.372797 -0.601144 1.81791
757 -0.206836 0.774358 0.619185 0.741592 1.24548 0.669966 -0.344731 -0.0169559 -0.392299 1.26433
1556 -0.377733 1.39263 1.21257 1.11286 1.69438 0.848392 -0.440344 0.586331 -0.520675 1.7121
2667 -0.378344 1.63616 1.18532 1.39754 1.42577 1.10828 -0.225597 0.405984 -0.415886 1.66681
2887 -0.60605 1.28812 1.14805 1.32392 1.40327 1.03598 -0.72484 0.104749 -0.462158 1.73952
822 0.442973 0.159943 0.603492 0.707277 0.833205 0.267542 -0.0317408 0.457491 0.257578 1.8097
718 0.566273 0.119483 0.508797 0.58776 0.82225 0.438418 -0.629127 0.37025 -0.124738 1.75151
3547 -0.527453 1.22454 0.977502 1.55408 1.62136 0.943364 -0.5263 0.401818 -0.582297 1.75931
2900 -0.50683 1.47189 1.00554 1.52904 1.39718 0.852154 -0.452022 0.273358 -0.572554 1.71192
614 0.220008 0.593759 0.637687 1.00239 0.962516 0.455457 -0.398553 0.43652 -0.199647 1.49305
778 -0.123031 0.492253 0.506144 0.615467 1.05829 0.983928 -0.286258 0.141002 -0.361297 1.48026
2867 -0.630676 1.46958 1.04086 1.29392 1.41007 1.06481 -0.320188 0.42216 -0.544441 1.78984
407 0.308623 0.109521 0.288938 0.301947 1.201 1.03804 -0.382656 -0.138203 -0.579873 1.59136
802 0.620599 0.100496 0.527786 0.206133 0.766956 0.663581 -0.394655 0.17003 -0.437967 2.03446
1363 0.296761 0.688085 0.703156 1.00497 1.1895 0.633154 -0.417159 0.00692106 -0.132898 1.11619
3272 -0.429053 1.38026 1.10405 1.28713 1.40408 1.00214 -0.736353 0.447441 -0.494685 1.76295
864 0.208847 0.686512 0.625787 1.00466 0.983259 0.639248 -0.202309 0.121625 -0.162205 1.27912
1373 -0.207396 0.545481 0.771057 1.03207 0.956647 0.50259 -0.485771 0.122315 0.643794 1.17141
3422 -0.780101 1.49175 1.13311 1.21874 1.54855 1.3145 -0.422771 0.334882 -0.611191 1.45338
2470 -0.245912 1.56963 1.14083 1.44185 1.48986 0.821763 -0.497722 0.575159 -0.460162 1.6474
743 0.165677 0.471496 0.758055 0.852201 0.935898 0.515392 -0.809333 0.313754 0.00119617 1.28881
2642 -0.886123 1.56443 1.01129 1.34977 1.47518 0.992372 -0.413497 0.313022 -0.349444 1.592
3041 -0.622411 1.5168 1.10916 1.27899 1.52867 0.865181 -0.341752 0.432235 -0.533503 1.88501
3228 -0.55151 1.43066 1.15983 1.42416 1.42276 1.07358 -0.513673 0.494625 -0.367016 1.71101
2171 -0.3295 1.43966 1.14317 1.338 1.58211 1.11055 -0.523082 0.195098 -0.469791 1.72142
917 0.132246 0.384954 0.729681 0.863893 1.16527 0.778333 -0.181728 0.459782 -0.0242067 1.44695
531 -0.221259 1.48587 1.04586 1.32194 1.19102 0.826656 -0.335603 0.352962 -0.484778 1.63887
2534 -0.408006 1.58242 1.22696 1.3046 1.59423 0.751732 -0.524294 0.547626 -0.387373 1.77524
1070 -0.385925 1.21856 1.05805 1.25526 1.22256 0.458793 -0.760716 0.108311 -0.703335 1.03013
1736 -0.605245 1.34567 0.973603 1.68106 1.39403 0.715611 -0.398027 0.577077 -0.535235 1.79107
2193 -0.567439 1.25902 1.01583 1.2237 1.5986 0.966381 -0.434355 0.67875 -0.507869 1.81426
706 0.511034 0.0937509 0.828475 1.1255 1.04628 0.55778 -0.416792 0.187503 -0.196099 1.19573
560 0.141562 0.397163 0.545409 0.549871 1.01334 0.577854 -0.75868 0.0749177 -0.378196 1.5558
3259 -0.262044 1.47068 1.24968 1.49747 1.51755 0.86887 -0.410455 0.075675 -0.638292 1.62166
2456 -0.612174 1.56083 1.08111 1.51914 1.55302 0.883437 -0.38692 0.467568 -0.324759 1.56506
1770 -0.756657 1.40709 1.25597 1.28147 1.43197 0.844901 -0.243668 0.60468 -0.450117 1.92741
3285 -0.223656 1.53429 1.32466 1.45604 1.5278 0.748664 -0.281833 0.495668 -0.512223 1.6535
3341 -0.548733 1.18305 0.990564 1.52638 1.69992 0.773571 -0.4717 0.285213 -0.676078 1.7463
3462 -0.707837 1.60579 0.891687 1.40559 1.57352 0.707665 -0.45197 0.343764 -0.380331 1.69186
3309 -0.683724 1.53458 1.07442 1.38504 1.52771 0.969467 -0.469145 0.365885 -0.598081 1.69914
1643 -0.291163 1.5017 1.25439 1.42527 1.32588 0.893083 -0.198647 0.286404 -0.361126 1.81219
401 0.308285 0.282701 0.781106 0.67703 1.10159 0.611412 -0.161601 0.0393421 0.00221059 1.48705
146 0.110412 0.631202 0.788745 0.857137 1.24642 0.417631 -0.256333 -0.0151251 0.35688 1.25648
376 0.336887 0.460899 0.826948 0.413168 1.0467 0.772717 -0.378552 0.738988 -0.0546079 1.2689
1304 -0.222967 0.40902 0.681542 0.615874 1.20678 0.334565 -0.386907 0.244158 -0.196804 1.48923
1925 -0.716311 1.42562 1.09226 1.33361 1.4766 0.914675 -0.368867 0.402749 -0.244048 1.67933
1254 0.300007 0.479747 0.653513 0.826348 0.909556 0.477211 -0.175386 0.532815 0.261079 1.37238
2328 -0.642289 1.44497 0.837005 1.22543 1.51034 0.865163 -0.566514 0.285773 -0.659595 1.8671
1917 -0.570621 1.51355 0.953604 1.54613 1.3708 1.05001 -0.258498 0.390274 -0.419139 1.73609
2441 -0.552769 1.23288 1.11393 1.45739 1.35272 0.868059 -0.542877 0.410179 -0.608274 1.77741
3114 -0.42501 1.41362 1.13214 1.38154 1.74198 0.847204 -0.470251 0.572372 -0.349184 1.57337
672 0.407662 0.394286 0.676402 0.875874 1.13354 0.498912 -0.159762 0.196194 0.262108 1.335
788 -0.255719 0.623405 0.712884 1.0031 1.00611 0.64339 -0.421109 0.207695 0.254292 1.22716
2698 -0.53336 1.28621 1.0812 1.26798 1.56076 0.829244 -0.216802 0.538315 -0.741416 1.82964
2228 -0.409311 1.26042 1.03586 1.36283 1.34454 0.940079 -0.408253 0.531626 -0.576019 1.91874
2145 -0.404509 1.42414 1.10696 1.56969 1.44552 0.717148 -0.551102 0.271765 -0.469526 1.76644
2616 -0.604265 1.26684 1.24739 1.44742 1.36348 0.966827 -0.277769 0.361652 -0.749296 1.76026
1409 0.0106162 0.526912 0.6276 0.704465 0.796368 1.07948 0.106668 0.328117 0.00995357 1.46784
1901 -0.412697 1.33306 1.20515 1.37408 1.4753 0.848749 -0.58113 0.375079 -0.613315 1.69464
2906 -0.26572 1.61518 1.01274 1.37641 1.38029 0.903121 -0.514023 0.624715 -0.653257 1.71606
2941 -0.421053 1.38226 0.875831 1.51529 1.5081 0.868453 -0.577921 0.198702 -0.718811 1.63108
663 0.299153 0.441637 0.435086 0.960901 1.01922 0.920522 -0.297666 0.21702 -0.229938 1.24396
2764 -0.779922 1.47693 0.939433 1.49651 1.45013 0.983321 -0.536231 0.676707 -0.491798 1.69559
2835 -0.64162 1.35775 1.143 1.37251 1.39466 0.867632 -0.378336 0.107751 -0.716565 1.74271
2869 -0.614754 1.43355 0.819508 1.43949 1.40629 0.938284 -0.406461 0.378215 -0.474063 1.88913
1293 0.182019 0.384384 0.645654 0.865865 0.981718 0.625766 -0.482639 0.155743 -0.125241 1.51101
1562 -0.292977 1.55804 1.20092 1.11878 1.68799 0.697433 -0.383508 0.274424 -0.685017 1.68828
2849 -0.792783 1.46628 0.843797 1.16537 1.68778 0.98172 -0.3381 0.450633 -0.48355 1.79374
2893 -0.458619 1.4711 1.03129 1.33938 1.33796 0.994036 -0.410411 0.439808 -0.557876 1.82219
2553 -0.596223 1.49198 1.00054 1.26921 1.26172 1.18026 -0.533283 0.204694 -0.543329 1.76241
1255 -0.0104476 0.656866 0.709561 0.81814 1.08885 0.771869 -0.466884 0.111714 -0.333963 1.36378
688 0.64341 0.0657291 0.752619 0.627954 0.90756 0.795187 0.201885 0.154133 -0.390406 1.68107
3175 -0.358484 1.59181 0.855776 1.48745 1.30725 0.993366 -0.53392 0.422743 -0.528519 1.78915
2113 -0.608346 1.40176 1.07397 1.51659 1.38763 1.00158 -0.477545 0.357905 -0.724992 1.74915
484 -0.165906 0.350972 0.861156 0.82 0.802126 0.255314 -0.361865 -0.0983139 -0.125811 1.62568
3171 -0.529758 1.51063 1.19187 1.19494 1.69308 0.880044 -0.464343 0.146325 -0.55737 1.52851
2287 -0.491603 1.44988 1.37868 1.58296 1.46063 0.718131 -0.497581 0.55011 -0.621859 1.72204
490 0.202225 0.347011 0.789195 0.750604 0.987678 0.714893 -0.519597 0.0430984 -0.18337 1.426
1569 -0.640902 1.61356 0.93991 1.35939 1.49959 0.570398 -0.646111 0.497963 -0.525926 1.69541
1809 -0.450705 1.38565 1.01501 1.56406 1.63337 0.766616 -0.232161 0.120222 -0.541482 1.68905
12 0.289773 0.464192 0.399409 0.894029 0.888005 0.552866 -0.564578 0.285955 -0.328803 1.47665
495 0.0349963 0.72537 0.510907 1.06989 1.09617 0.559679 -0.707601 -0.101407 -0.398372 1.14814
2316 -0.692448 1.52966 1.05356 1.48523 1.43624 0.658592 -0.316079 0.524097 -0.631923 1.76794
2535 -0.494347 1.31151 1.24586 1.30585 1.58444 0.920536 -0.476018 0.570135 -0.71156 1.70237
2040 -0.581492 1.18726 1.03654 1.51911 1.48529 1.03162 -0.424231 0.0436365 -0.575218 1.78008
1375 0.155529 0.422271 0.912863 1.15134 0.903965 0.454532 -0.291206 -0.0144398 0.0432423 1.20787
1766 -0.508313 1.36652 1.12195 1.36662 1.55693 1.04672 -0.585702 0.460147 -0.514868 1.64787
259 0.16968 0.291963 0.52915 0.857273 0.951494 0.754133 -0.284245 0.167637 -0.0539468 1.65955
1712 -0.610938 1.46138 1.04249 1.07389 1.5558 1.21101 -0.341928 0.312562 -0.555613 1.85682
1039 -0.263726 1.22012 0.897587 1.25214 1.47164 0.864391 -0.482721 0.229333 -0.50803 1.53135
969 -0.587224 1.30765 0.824644 1.31621 1.33014 1.0664 -0.240313 0.491053 -0.486228 1.44491
1621 -0.760863 1.40463 0.883733 1.17775 1.61473 0.917645 -0.392733 0.398879 -0.521785 1.947
1633 -0.639094 1.30781 1.01271 1.59806 1.5145 0.845593 -0.467106 0.21305 -0.183734 1.77662
861 -0.0903056 0.526126 0.777447 0.840677 1.04889 0.662972 -0.229984 0.360652 -0.514638 1.59882
3353 -0.36239 1.26785 0.948726 1.71213 1.58453 0.596904 -0.393535 0.380364 -0.642822 1.76638
831 -0.185924 0.945174 0.834028 1.25993 1.27419 0.750561 -0.301573 0.205463 -0.402214 1.51439
2026 -0.56041 1.10189 1.23206 1.53354 1.44442 0.74438 -0.607754 0.34141 -0.670357 1.76962
1867 -0.452677 1.2879 0.928891 1.47628 1.61271 0.7466 -0.586592 0.205867 -0.545616 1.871
3532 -0.522191 1.31148 0.92874 1.30159 1.30258 0.852616 -0.805763 0.385476 -0.887482 1.77557
575 0.407918 0.433609 0.343097 0.546916 1.07783 0.521465 -0.170675 0.268689 -0.0307173 1.65623
732 -0.0499057 0.626205 0.909856 0.98216 0.919492 0.7371 -0.266969 0.0894435 -0.238225 1.49132
740 -0.202666 0.532563 0.771308 0.931819 0.848626 1.1163 -0.489702 0.284718 -0.320683 1.16821
1882 -0.555322 1.5165 1.19014 1.46403 1.33105 0.751194 -0.22832 0.417865 -0.635533 1.77618
1414 0.230118 0.367767 0.842547 0.576551 1.05453 0.376427 -0.407745 0.373026 -0.0470245 1.35396
2606 -0.581393 1.29128 0.988732 1.47775 1.43539 0.774244 -0.169917 0.322461 -0.557118 1.87562
359 0.219913 0.200967 0.338392 0.834204 1.3251 0.527034 -0.188861 0.344976 -0.234015 1.42804
3396 -0.328171 1.40204 1.2452 1.24363 1.31336 0.721067 -0.110907 0.628143 -0.625025 1.87362
758 0.484658 0.477391 0.430749 0.350685 0.950252 0.827332 -0.272302 0.225056 -0.0646219 1.71722
1334 0.0307371 0.289131 0.720636 0.940096 0.691857 0.440113 -0.450235 0.486769 -0.202521 1.59854
2423 -0.538116 1.70284 1.10615 1.395 1.59568 0.990155 -0.518317 0.462587 -0.594079 1.68789
2047 -0.551369 1.47958 0.832816 1.40637 1.59422 0.974432 -0.620514 0.442034 -0.78816 1.85103
391 -0.0231605 0.503506 0.578744 1.16109 1.00916 0.77004 -0.446402 0.308662 -0.201597 1.23168
744 0.58778 0.34379 0.509579 0.651899 0.961138 0.721272 -0.495669 -0.0319273 -0.116262 1.56108
767 -0.211827 0.497827 0.682497 1.08605 0.978627 0.681983 -0.478025 0.577635 -0.253623 1.24828
1018 -0.480209 1.13916 0.924782 1.05471 1.38553 0.845185 -0.180558 0.105611 -0.515179 1.6917
3312 -0.60701 1.49637 1.11322 1.33328 1.66939 0.840757 -0.378634 0.161992 -0.537151 1.66955
2825 -0.591027 1.37514 1.13194 1.44476 1.35271 1.00535 -0.117247 0.214926 -0.436751 1.86918
1739 -0.551256 1.56525 1.2254 1.52473 1.35125 0.945488 -0.432819 0.247095 -0.329708 1.68841
1558 -0.55445 1.44195 1.16597 1.38342 1.34431 0.700521 -0.308836 0.420579 -0.889437 1.78007
3134 -0.714187 1.59487 0.960818 1.33791 1.55113 0.90468 -0.507402 0.539093 -0.598895 1.77615
2981 -0.563222 1.36021 1.01798 1.52854 1.56394 0.846168 -0.601074 0.453982 -0.581279 1.57774
1372 0.0591651 0.270977 0.337052 0.798717 1.21396 0.445417 -0.362918 0.12347 -0.436954 1.43557
3528 -0.554408 1.69344 0.972887 1.40656 1.62641 0.80123 -0.359298 0.428162 -0.870871 1.41191
1430 0.111522 0.351759 0.893091 0.605988 1.00167 0.522027 -0.216595 0.0850273 -0.0851771 1.52892
1062 0.13489 0.428717 0.636835 0.778655 1.13696 0.642084 -0.0782456 0.324538 -0.0114457 1.36365
1360 0.0781549 0.388502 0.895953 0.89011 1.1726 0.749059 -0.0407563 0.352749 -0.315403 1.49285
